{"learner":{"attributes":{"scikit_learn":"{\"_estimator_type\": \"regressor\"}"},"feature_names":["Hour","Day_of_Week","Quarter","Month","Year","Day_of_Year","Day_of_Month","lag1","lag2","lag3"],"feature_types":["int","int","int","int","int","int","int","float","float","float"],"gradient_booster":{"model":{"gbtree_model_param":{"num_parallel_tree":"1","num_trees":"1000"},"iteration_indptr":[0,1,2,3,4,5,6,7,8,9,10,11,12,13,14,15,16,17,18,19,20,21,22,23,24,25,26,27,28,29,30,31,32,33,34,35,36,37,38,39,40,41,42,43,44,45,46,47,48,49,50,51,52,53,54,55,56,57,58,59,60,61,62,63,64,65,66,67,68,69,70,71,72,73,74,75,76,77,78,79,80,81,82,83,84,85,86,87,88,89,90,91,92,93,94,95,96,97,98,99,100,101,102,103,104,105,106,107,108,109,110,111,112,113,114,115,116,117,118,119,120,121,122,123,124,125,126,127,128,129,130,131,132,133,134,135,136,137,138,139,140,141,142,143,144,145,146,147,148,149,150,151,152,153,154,155,156,157,158,159,160,161,162,163,164,165,166,167,168,169,170,171,172,173,174,175,176,177,178,179,180,181,182,183,184,185,186,187,188,189,190,191,192,193,194,195,196,197,198,199,200,201,202,203,204,205,206,207,208,209,210,211,212,213,214,215,216,217,218,219,220,221,222,223,224,225,226,227,228,229,230,231,232,233,234,235,236,237,238,239,240,241,242,243,244,245,246,247,248,249,250,251,252,253,254,255,256,257,258,259,260,261,262,263,264,265,266,267,268,269,270,271,272,273,274,275,276,277,278,279,280,281,282,283,284,285,286,287,288,289,290,291,292,293,294,295,296,297,298,299,300,301,302,303,304,305,306,307,308,309,310,311,312,313,314,315,316,317,318,319,320,321,322,323,324,325,326,327,328,329,330,331,332,333,334,335,336,337,338,339,340,341,342,343,344,345,346,347,348,349,350,351,352,353,354,355,356,357,358,359,360,361,362,363,364,365,366,367,368,369,370,371,372,373,374,375,376,377,378,379,380,381,382,383,384,385,386,387,388,389,390,391,392,393,394,395,396,397,398,399,400,401,402,403,404,405,406,407,408,409,410,411,412,413,414,415,416,417,418,419,420,421,422,423,424,425,426,427,428,429,430,431,432,433,434,435,436,437,438,439,440,441,442,443,444,445,446,447,448,449,450,451,452,453,454,455,456,457,458,459,460,461,462,463,464,465,466,467,468,469,470,471,472,473,474,475,476,477,478,479,480,481,482,483,484,485,486,487,488,489,490,491,492,493,494,495,496,497,498,499,500,501,502,503,504,505,506,507,508,509,510,511,512,513,514,515,516,517,518,519,520,521,522,523,524,525,526,527,528,529,530,531,532,533,534,535,536,537,538,539,540,541,542,543,544,545,546,547,548,549,550,551,552,553,554,555,556,557,558,559,560,561,562,563,564,565,566,567,568,569,570,571,572,573,574,575,576,577,578,579,580,581,582,583,584,585,586,587,588,589,590,591,592,593,594,595,596,597,598,599,600,601,602,603,604,605,606,607,608,609,610,611,612,613,614,615,616,617,618,619,620,621,622,623,624,625,626,627,628,629,630,631,632,633,634,635,636,637,638,639,640,641,642,643,644,645,646,647,648,649,650,651,652,653,654,655,656,657,658,659,660,661,662,663,664,665,666,667,668,669,670,671,672,673,674,675,676,677,678,679,680,681,682,683,684,685,686,687,688,689,690,691,692,693,694,695,696,697,698,699,700,701,702,703,704,705,706,707,708,709,710,711,712,713,714,715,716,717,718,719,720,721,722,723,724,725,726,727,728,729,730,731,732,733,734,735,736,737,738,739,740,741,742,743,744,745,746,747,748,749,750,751,752,753,754,755,756,757,758,759,760,761,762,763,764,765,766,767,768,769,770,771,772,773,774,775,776,777,778,779,780,781,782,783,784,785,786,787,788,789,790,791,792,793,794,795,796,797,798,799,800,801,802,803,804,805,806,807,808,809,810,811,812,813,814,815,816,817,818,819,820,821,822,823,824,825,826,827,828,829,830,831,832,833,834,835,836,837,838,839,840,841,842,843,844,845,846,847,848,849,850,851,852,853,854,855,856,857,858,859,860,861,862,863,864,865,866,867,868,869,870,871,872,873,874,875,876,877,878,879,880,881,882,883,884,885,886,887,888,889,890,891,892,893,894,895,896,897,898,899,900,901,902,903,904,905,906,907,908,909,910,911,912,913,914,915,916,917,918,919,920,921,922,923,924,925,926,927,928,929,930,931,932,933,934,935,936,937,938,939,940,941,942,943,944,945,946,947,948,949,950,951,952,953,954,955,956,957,958,959,960,961,962,963,964,965,966,967,968,969,970,971,972,973,974,975,976,977,978,979,980,981,982,983,984,985,986,987,988,989,990,991,992,993,994,995,996,997,998,999,1000],"tree_info":[0,0,0,0,0,0,0,0,0,0,0,0,0,0,0,0,0,0,0,0,0,0,0,0,0,0,0,0,0,0,0,0,0,0,0,0,0,0,0,0,0,0,0,0,0,0,0,0,0,0,0,0,0,0,0,0,0,0,0,0,0,0,0,0,0,0,0,0,0,0,0,0,0,0,0,0,0,0,0,0,0,0,0,0,0,0,0,0,0,0,0,0,0,0,0,0,0,0,0,0,0,0,0,0,0,0,0,0,0,0,0,0,0,0,0,0,0,0,0,0,0,0,0,0,0,0,0,0,0,0,0,0,0,0,0,0,0,0,0,0,0,0,0,0,0,0,0,0,0,0,0,0,0,0,0,0,0,0,0,0,0,0,0,0,0,0,0,0,0,0,0,0,0,0,0,0,0,0,0,0,0,0,0,0,0,0,0,0,0,0,0,0,0,0,0,0,0,0,0,0,0,0,0,0,0,0,0,0,0,0,0,0,0,0,0,0,0,0,0,0,0,0,0,0,0,0,0,0,0,0,0,0,0,0,0,0,0,0,0,0,0,0,0,0,0,0,0,0,0,0,0,0,0,0,0,0,0,0,0,0,0,0,0,0,0,0,0,0,0,0,0,0,0,0,0,0,0,0,0,0,0,0,0,0,0,0,0,0,0,0,0,0,0,0,0,0,0,0,0,0,0,0,0,0,0,0,0,0,0,0,0,0,0,0,0,0,0,0,0,0,0,0,0,0,0,0,0,0,0,0,0,0,0,0,0,0,0,0,0,0,0,0,0,0,0,0,0,0,0,0,0,0,0,0,0,0,0,0,0,0,0,0,0,0,0,0,0,0,0,0,0,0,0,0,0,0,0,0,0,0,0,0,0,0,0,0,0,0,0,0,0,0,0,0,0,0,0,0,0,0,0,0,0,0,0,0,0,0,0,0,0,0,0,0,0,0,0,0,0,0,0,0,0,0,0,0,0,0,0,0,0,0,0,0,0,0,0,0,0,0,0,0,0,0,0,0,0,0,0,0,0,0,0,0,0,0,0,0,0,0,0,0,0,0,0,0,0,0,0,0,0,0,0,0,0,0,0,0,0,0,0,0,0,0,0,0,0,0,0,0,0,0,0,0,0,0,0,0,0,0,0,0,0,0,0,0,0,0,0,0,0,0,0,0,0,0,0,0,0,0,0,0,0,0,0,0,0,0,0,0,0,0,0,0,0,0,0,0,0,0,0,0,0,0,0,0,0,0,0,0,0,0,0,0,0,0,0,0,0,0,0,0,0,0,0,0,0,0,0,0,0,0,0,0,0,0,0,0,0,0,0,0,0,0,0,0,0,0,0,0,0,0,0,0,0,0,0,0,0,0,0,0,0,0,0,0,0,0,0,0,0,0,0,0,0,0,0,0,0,0,0,0,0,0,0,0,0,0,0,0,0,0,0,0,0,0,0,0,0,0,0,0,0,0,0,0,0,0,0,0,0,0,0,0,0,0,0,0,0,0,0,0,0,0,0,0,0,0,0,0,0,0,0,0,0,0,0,0,0,0,0,0,0,0,0,0,0,0,0,0,0,0,0,0,0,0,0,0,0,0,0,0,0,0,0,0,0,0,0,0,0,0,0,0,0,0,0,0,0,0,0,0,0,0,0,0,0,0,0,0,0,0,0,0,0,0,0,0,0,0,0,0,0,0,0,0,0,0,0,0,0,0,0,0,0,0,0,0,0,0,0,0,0,0,0,0,0,0,0,0,0,0,0,0,0,0,0,0,0,0,0,0,0,0,0,0,0,0,0,0,0,0,0,0,0,0,0,0,0,0,0,0,0,0,0,0,0,0,0,0,0,0,0,0,0,0,0,0,0,0,0,0,0,0,0,0,0,0,0,0,0,0,0,0,0,0,0,0,0,0,0,0,0,0,0,0,0,0,0,0,0,0,0,0,0,0,0,0,0,0,0,0,0,0,0,0,0,0,0,0,0,0,0,0,0,0,0,0,0,0,0,0,0,0,0,0,0,0,0,0,0,0,0,0,0,0,0,0,0,0,0,0,0,0,0,0,0,0,0,0,0,0,0,0,0,0,0,0,0,0,0,0,0,0,0,0,0,0,0,0,0,0,0,0,0,0,0,0,0,0,0,0,0,0,0,0,0,0,0,0,0,0,0,0,0,0,0,0,0,0,0,0,0,0,0,0,0,0,0,0,0,0,0,0,0,0,0,0,0,0,0,0,0,0,0,0,0,0,0,0,0,0,0,0,0,0,0,0,0,0],"trees":[{"base_weights":[3.2079502E4,2.8803309E4,3.6627023E4,2.5531479E4,3.0747047E4,3.506599E4,4.0992086E4,2.3726169E2,2.6769058E2,2.85172E2,3.1834808E2,3.3791772E2,3.720263E2,3.7095026E2,4.2213504E2],"categories":[],"categories_nodes":[],"categories_segments":[],"categories_sizes":[],"default_left":[1,0,0,0,0,1,0,0,0,0,0,0,0,0,0],"id":0,"left_children":[1,3,5,7,9,11,13,-1,-1,-1,-1,-1,-1,-1,-1],"loss_changes":[2.1646971E12,5.365941E11,4.1333188E11,6.973869E10,1.2765364E11,1.20825315E11,7.472572E10,0E0,0E0,0E0,0E0,0E0,0E0,0E0,0E0],"parents":[2147483647,0,0,1,1,2,2,3,3,4,4,5,5,6,6],"right_children":[2,4,6,8,10,12,14,-1,-1,-1,-1,-1,-1,-1,-1],"split_conditions":[3.2217E4,2.7228E4,3.9804E4,2.3991E4,8E0,3.5698E4,1.67E2,2.3726169E2,2.6769058E2,2.85172E2,3.1834808E2,3.3791772E2,3.720263E2,3.7095026E2,4.2213504E2],"split_indices":[7,7,7,7,0,8,5,0,0,0,0,0,0,0,0],"split_type":[0,0,0,0,0,0,0,0,0,0,0,0,0,0,0],"sum_hessian":[1.45366E5,8.4498E4,6.0868E4,3.1496E4,5.3002E4,4.4841E4,1.6027E4,1.2818E4,1.8678E4,1.7387E4,3.5615E4,2.81E4,1.6741E4,3.832E3,1.2195E4],"tree_param":{"num_deleted":"0","num_feature":"10","num_nodes":"15","size_leaf_vector":"1"}},{"base_weights":[3.1758725E4,2.8515287E4,3.6260777E4,2.527618E4,3.0439588E4,3.4715348E4,4.058221E4,2.3488925E2,2.650138E2,2.8232047E2,3.151647E2,3.3590335E2,3.7106458E2,3.6724176E2,4.17914E2],"categories":[],"categories_nodes":[],"categories_segments":[],"categories_sizes":[],"default_left":[1,0,0,0,0,1,0,0,0,0,0,0,0,0,0],"id":1,"left_children":[1,3,5,7,9,11,13,-1,-1,-1,-1,-1,-1,-1,-1],"loss_changes":[2.1216132E12,5.259154E11,4.0511105E11,6.8346184E10,1.2511189E11,1.1937409E11,7.323674E10,0E0,0E0,0E0,0E0,0E0,0E0,0E0,0E0],"parents":[2147483647,0,0,1,1,2,2,3,3,4,4,5,5,6,6],"right_children":[2,4,6,8,10,12,14,-1,-1,-1,-1,-1,-1,-1,-1],"split_conditions":[3.2217E4,2.7228E4,3.9804E4,2.3991E4,8E0,3.6069E4,1.67E2,2.3488925E2,2.650138E2,2.8232047E2,3.151647E2,3.3590335E2,3.7106458E2,3.6724176E2,4.17914E2],"split_indices":[7,7,7,7,0,9,5,0,0,0,0,0,0,0,0],"split_type":[0,0,0,0,0,0,0,0,0,0,0,0,0,0,0],"sum_hessian":[1.45366E5,8.4498E4,6.0868E4,3.1496E4,5.3002E4,4.4841E4,1.6027E4,1.2818E4,1.8678E4,1.7387E4,3.5615E4,3.0504E4,1.4337E4,3.832E3,1.2195E4],"tree_param":{"num_deleted":"0","num_feature":"10","num_nodes":"15","size_leaf_vector":"1"}},{"base_weights":[3.1441156E4,2.8278484E4,3.5966363E4,2.5023434E4,3.017396E4,3.4423902E4,4.017644E4,2.3372472E2,2.6324033E2,2.796766E2,3.1234946E2,3.3159955E2,3.6495358E2,3.6357025E2,4.1373523E2],"categories":[],"categories_nodes":[],"categories_segments":[],"categories_sizes":[],"default_left":[1,0,0,0,0,1,0,0,0,0,0,0,0,0,0],"id":2,"left_children":[1,3,5,7,9,11,13,-1,-1,-1,-1,-1,-1,-1,-1],"loss_changes":[2.079452E12,5.2719885E11,3.8693293E11,6.701659E10,1.2570329E11,1.1339301E11,7.1777124E10,0E0,0E0,0E0,0E0,0E0,0E0,0E0,0E0],"parents":[2147483647,0,0,1,1,2,2,3,3,4,4,5,5,6,6],"right_children":[2,4,6,8,10,12,14,-1,-1,-1,-1,-1,-1,-1,-1],"split_conditions":[3.2326E4,2.7228E4,3.9804E4,2.4208E4,8E0,3.5698E4,1.67E2,2.3372472E2,2.6324033E2,2.796766E2,3.1234946E2,3.3159955E2,3.6495358E2,3.6357025E2,4.1373523E2],"split_indices":[7,7,7,7,0,8,5,0,0,0,0,0,0,0,0],"split_type":[0,0,0,0,0,0,0,0,0,0,0,0,0,0,0],"sum_hessian":[1.45366E5,8.5569E4,5.9797E4,3.1496E4,5.4073E4,4.377E4,1.6027E4,1.3887E4,1.7609E4,1.7568E4,3.6505E4,2.7194E4,1.6576E4,3.832E3,1.2195E4],"tree_param":{"num_deleted":"0","num_feature":"10","num_nodes":"15","size_leaf_vector":"1"}},{"base_weights":[3.1126762E4,2.794768E4,3.5539484E4,2.4593332E4,2.9733426E4,3.402488E4,3.9774723E4,2.2919159E2,2.575159E2,2.761711E2,3.0811307E2,3.297912E2,3.6527307E2,3.5993555E2,4.095982E2],"categories":[],"categories_nodes":[],"categories_segments":[],"categories_sizes":[],"default_left":[1,0,0,0,0,1,0,0,0,0,0,0,0,0,0],"id":3,"left_children":[1,3,5,7,9,11,13,-1,-1,-1,-1,-1,-1,-1,-1],"loss_changes":[2.0382807E12,5.0542202E11,3.890972E11,5.634628E10,1.2492315E11,1.1614447E11,7.034896E10,0E0,0E0,0E0,0E0,0E0,0E0,0E0,0E0],"parents":[2147483647,0,0,1,1,2,2,3,3,4,4,5,5,6,6],"right_children":[2,4,6,8,10,12,14,-1,-1,-1,-1,-1,-1,-1,-1],"split_conditions":[3.2217E4,2.6919E4,3.9804E4,2.448E4,8E0,3.6439E4,1.67E2,2.2919159E2,2.575159E2,2.761711E2,3.0811307E2,3.297912E2,3.6527307E2,3.5993555E2,4.095982E2],"split_indices":[7,7,7,8,0,9,5,0,0,0,0,0,0,0,0],"split_type":[0,0,0,0,0,0,0,0,0,0,0,0,0,0,0],"sum_hessian":[1.45366E5,8.4498E4,6.0868E4,2.9361E4,5.5137E4,4.4841E4,1.6027E4,1.2015E4,1.7346E4,1.8615E4,3.6522E4,3.1635E4,1.3206E4,3.832E3,1.2195E4],"tree_param":{"num_deleted":"0","num_feature":"10","num_nodes":"15","size_leaf_vector":"1"}},{"base_weights":[3.0815512E4,2.7619863E4,3.511832E4,2.4347416E4,2.9396771E4,3.363112E4,3.9377023E4,2.2518967E2,2.5389642E2,2.7315527E2,3.0470013E2,3.2397235E2,3.574706E2,3.563371E2,4.0550256E2],"categories":[],"categories_nodes":[],"categories_segments":[],"categories_sizes":[],"default_left":[1,0,0,0,0,1,0,0,0,0,0,0,0,0,0],"id":4,"left_children":[1,3,5,7,9,11,13,-1,-1,-1,-1,-1,-1,-1,-1],"loss_changes":[1.9978644E12,4.8436242E11,3.9102657E11,5.538159E10,1.19919346E11,1.1873236E11,6.894597E10,0E0,0E0,0E0,0E0,0E0,0E0,0E0,0E0],"parents":[2147483647,0,0,1,1,2,2,3,3,4,4,5,5,6,6],"right_children":[2,4,6,8,10,12,14,-1,-1,-1,-1,-1,-1,-1,-1],"split_conditions":[3.211E4,2.6919E4,3.9804E4,2.3529E4,8E0,3.5698E4,1.67E2,2.2518967E2,2.5389642E2,2.7315527E2,3.0470013E2,3.2397235E2,3.574706E2,3.563371E2,4.0550256E2],"split_indices":[7,7,7,7,0,8,5,0,0,0,0,0,0,0,0],"split_type":[0,0,0,0,0,0,0,0,0,0,0,0,0,0,0],"sum_hessian":[1.45366E5,8.3419E4,6.1947E4,2.9361E4,5.4058E4,4.592E4,1.6027E4,1.0668E4,1.8693E4,1.8401E4,3.5657E4,2.9016E4,1.6904E4,3.832E3,1.2195E4],"tree_param":{"num_deleted":"0","num_feature":"10","num_nodes":"15","size_leaf_vector":"1"}},{"base_weights":[3.0507373E4,2.7622527E4,3.5180816E4,2.4400303E4,2.9500234E4,3.363514E4,3.89833E4,2.2721628E2,2.5695026E2,2.725483E2,3.049221E2,3.1744543E2,3.492155E2,3.527747E2,4.0144788E2],"categories":[],"categories_nodes":[],"categories_segments":[],"categories_sizes":[],"default_left":[1,0,0,0,0,0,0,0,0,0,0,0,0,0,0],"id":5,"left_children":[1,3,5,7,9,11,13,-1,-1,-1,-1,-1,-1,-1,-1],"loss_changes":[1.9588994E12,5.431372E11,3.2476496E11,7.135769E10,1.2565715E11,9.48458E10,6.757443E10,0E0,0E0,0E0,0E0,0E0,0E0,0E0,0E0],"parents":[2147483647,0,0,1,1,2,2,3,3,4,4,5,5,6,6],"right_children":[2,4,6,8,10,12,14,-1,-1,-1,-1,-1,-1,-1,-1],"split_conditions":[3.2799E4,2.7471E4,3.9804E4,2.432E4,8E0,3.4392E4,1.67E2,2.2721628E2,2.5695026E2,2.725483E2,3.049221E2,3.1744543E2,3.492155E2,3.527747E2,4.0144788E2],"split_indices":[7,7,7,7,0,9,5,0,0,0,0,0,0,0,0],"split_type":[0,0,0,0,0,0,0,0,0,0,0,0,0,0,0],"sum_hessian":[1.45366E5,8.9887E4,5.5479E4,3.31E4,5.6787E4,3.9452E4,1.6027E4,1.4421E4,1.8679E4,1.7409E4,3.9378E4,1.5985E4,2.3467E4,3.832E3,1.2195E4],"tree_param":{"num_deleted":"0","num_feature":"10","num_nodes":"15","size_leaf_vector":"1"}},{"base_weights":[3.0202318E4,2.718496E4,3.458282E4,2.4116506E4,2.9052434E4,3.309604E4,3.859352E4,2.2494429E2,2.5403865E2,2.6904425E2,3.0054337E2,3.2061624E2,3.5503223E2,3.5149487E2,3.98198E2],"categories":[],"categories_nodes":[],"categories_segments":[],"categories_sizes":[],"default_left":[1,0,0,0,0,1,0,0,0,0,0,0,0,0,0],"id":6,"left_children":[1,3,5,7,9,11,13,-1,-1,-1,-1,-1,-1,-1,-1],"loss_changes":[1.9204544E12,4.925581E11,3.5224604E11,6.7448603E10,1.1434931E11,1.0658146E11,6.6290975E10,0E0,0E0,0E0,0E0,0E0,0E0,0E0,0E0],"parents":[2147483647,0,0,1,1,2,2,3,3,4,4,5,5,6,6],"right_children":[2,4,6,8,10,12,14,-1,-1,-1,-1,-1,-1,-1,-1],"split_conditions":[3.2381E4,2.7395E4,3.9804E4,2.432E4,8E0,3.6439E4,1.72E2,2.2494429E2,2.5403865E2,2.6904425E2,3.0054337E2,3.2061624E2,3.5503223E2,3.5149487E2,3.98198E2],"split_indices":[7,7,7,7,0,9,5,0,0,0,0,0,0,0,0],"split_type":[0,0,0,0,0,0,0,0,0,0,0,0,0,0,0],"sum_hessian":[1.45366E5,8.608E4,5.9286E4,3.2573E4,5.3507E4,4.3259E4,1.6027E4,1.4421E4,1.8152E4,1.7028E4,3.6479E4,3.0267E4,1.2992E4,4.216E3,1.1811E4],"tree_param":{"num_deleted":"0","num_feature":"10","num_nodes":"15","size_leaf_vector":"1"}},{"base_weights":[2.990031E4,2.677447E4,3.4045742E4,2.362188E4,2.8503568E4,3.2577414E4,3.811809E4,2.198666E2,2.4753209E2,2.6495682E2,2.954595E2,3.1273123E2,3.450646E2,3.4762238E2,3.935278E2],"categories":[],"categories_nodes":[],"categories_segments":[],"categories_sizes":[],"default_left":[1,0,0,0,0,1,0,0,0,0,0,0,0,0,0],"id":7,"left_children":[1,3,5,7,9,11,13,-1,-1,-1,-1,-1,-1,-1,-1],"loss_changes":[1.8827476E12,4.5111837E11,3.7240386E11,5.3774123E10,1.1123294E11,1.1449611E11,6.7224207E10,0E0,0E0,0E0,0E0,0E0,0E0,0E0,0E0],"parents":[2147483647,0,0,1,1,2,2,3,3,4,4,5,5,6,6],"right_children":[2,4,6,8,10,12,14,-1,-1,-1,-1,-1,-1,-1,-1],"split_conditions":[3.2057E4,2.6919E4,3.9637E4,2.448E4,8E0,3.5193E4,1.72E2,2.198666E2,2.4753209E2,2.6495682E2,2.954595E2,3.1273123E2,3.450646E2,3.4762238E2,3.935278E2],"split_indices":[7,7,7,8,0,8,5,0,0,0,0,0,0,0,0],"split_type":[0,0,0,0,0,0,0,0,0,0,0,0,0,0,0],"sum_hessian":[1.45366E5,8.2879E4,6.2487E4,2.9361E4,5.3518E4,4.5934E4,1.6553E4,1.2015E4,1.7346E4,1.8298E4,3.522E4,2.7415E4,1.8519E4,4.46E3,1.2093E4],"tree_param":{"num_deleted":"0","num_feature":"10","num_nodes":"15","size_leaf_vector":"1"}},{"base_weights":[2.9601324E4,2.6800463E4,3.413871E4,2.3788445E4,2.8694133E4,3.2821484E4,3.836542E4,2.2139578E2,2.5114415E2,2.6477518E2,2.964011E2,3.2009274E2,3.5879016E2,3.485971E2,3.9606848E2],"categories":[],"categories_nodes":[],"categories_segments":[],"categories_sizes":[],"default_left":[1,0,1,0,0,0,0,0,0,0,0,0,0,0,0],"id":8,"left_children":[1,3,5,7,9,11,13,-1,-1,-1,-1,-1,-1,-1,-1],"loss_changes":[1.8465004E12,5.1201966E11,3.0762703E11,7.531921E10,1.1493232E11,1.0390969E11,5.59625E10,0E0,0E0,0E0,0E0,0E0,0E0,0E0,0E0],"parents":[2147483647,0,0,1,1,2,2,3,3,4,4,5,5,6,6],"right_children":[2,4,6,8,10,12,14,-1,-1,-1,-1,-1,-1,-1,-1],"split_conditions":[3.2799E4,2.7695E4,3.9738E4,2.4533E4,8E0,3.9637E4,1.72E2,2.2139578E2,2.5114415E2,2.6477518E2,2.964011E2,3.2009274E2,3.5879016E2,3.485971E2,3.9606848E2],"split_indices":[7,7,9,7,0,7,5,0,0,0,0,0,0,0,0],"split_type":[0,0,0,0,0,0,0,0,0,0,0,0,0,0,0],"sum_hessian":[1.45366E5,8.9887E4,5.5479E4,3.4703E4,5.5184E4,4.2304E4,1.3175E4,1.5476E4,1.9227E4,1.6515E4,3.8669E4,3.3434E4,8.87E3,3.453E3,9.722E3],"tree_param":{"num_deleted":"0","num_feature":"10","num_nodes":"15","size_leaf_vector":"1"}},{"base_weights":[2.9305328E4,2.6240664E4,3.336963E4,2.315022E4,2.7935676E4,3.1960225E4,3.745304E4,2.1538918E2,2.4265012E2,2.596825E2,2.8957053E2,3.0768106E2,3.4028192E2,3.3869467E2,3.8576227E2],"categories":[],"categories_nodes":[],"categories_segments":[],"categories_sizes":[],"default_left":[1,0,0,0,0,1,0,0,0,0,0,0,0,0,0],"id":9,"left_children":[1,3,5,7,9,11,13,-1,-1,-1,-1,-1,-1,-1,-1],"loss_changes":[1.8097835E12,4.335023E11,3.5842844E11,5.2219085E10,1.0679537E11,1.1349367E11,6.3206064E10,0E0,0E0,0E0,0E0,0E0,0E0,0E0,0E0],"parents":[2147483647,0,0,1,1,2,2,3,3,4,4,5,5,6,6],"right_children":[2,4,6,8,10,12,14,-1,-1,-1,-1,-1,-1,-1,-1],"split_conditions":[3.2057E4,2.6919E4,3.9804E4,2.448E4,8E0,3.5698E4,1.67E2,2.1538918E2,2.4265012E2,2.596825E2,2.8957053E2,3.0768106E2,3.4028192E2,3.3869467E2,3.8576227E2],"split_indices":[7,7,7,8,0,8,5,0,0,0,0,0,0,0,0],"split_type":[0,0,0,0,0,0,0,0,0,0,0,0,0,0,0],"sum_hessian":[1.45366E5,8.2879E4,6.2487E4,2.9361E4,5.3518E4,4.646E4,1.6027E4,1.2015E4,1.7346E4,1.8298E4,3.522E4,2.9481E4,1.6979E4,3.832E3,1.2195E4],"tree_param":{"num_deleted":"0","num_feature":"10","num_nodes":"15","size_leaf_vector":"1"}},{"base_weights":[2.9012291E4,2.626612E4,3.3461082E4,2.3312773E4,2.8122904E4,3.2164326E4,3.7622113E4,2.1692087E2,2.4616081E2,2.5949213E2,2.9050565E2,3.1094846E2,3.4395807E2,3.417623E2,3.8842358E2],"categories":[],"categories_nodes":[],"categories_segments":[],"categories_sizes":[],"default_left":[1,0,1,0,0,0,0,0,0,0,0,0,0,0,0],"id":10,"left_children":[1,3,5,7,9,11,13,-1,-1,-1,-1,-1,-1,-1,-1],"loss_changes":[1.7750882E12,4.9226868E11,2.981563E11,7.276908E10,1.10524105E11,9.989154E10,5.407716E10,0E0,0E0,0E0,0E0,0E0,0E0,0E0,0E0],"parents":[2147483647,0,0,1,1,2,2,3,3,4,4,5,5,6,6],"right_children":[2,4,6,8,10,12,14,-1,-1,-1,-1,-1,-1,-1,-1],"split_conditions":[3.2799E4,2.7695E4,3.9738E4,2.4533E4,8E0,3.7918E4,1.72E2,2.1692087E2,2.4616081E2,2.5949213E2,2.9050565E2,3.1094846E2,3.4395807E2,3.417623E2,3.8842358E2],"split_indices":[7,7,9,7,0,7,5,0,0,0,0,0,0,0,0],"split_type":[0,0,0,0,0,0,0,0,0,0,0,0,0,0,0],"sum_hessian":[1.45366E5,8.9887E4,5.5479E4,3.4703E4,5.5184E4,4.2304E4,1.3175E4,1.5476E4,1.9227E4,1.6515E4,3.8669E4,2.8608E4,1.3696E4,3.453E3,9.722E3],"tree_param":{"num_deleted":"0","num_feature":"10","num_nodes":"15","size_leaf_vector":"1"}},{"base_weights":[2.8722186E4,2.600347E4,3.3126496E4,2.3079658E4,2.7841686E4,3.1792186E4,3.7101484E4,2.1475182E2,2.4369933E2,2.5689737E2,2.8760065E2,2.987003E2,3.3075174E2,3.5468E2,3.964946E2],"categories":[],"categories_nodes":[],"categories_segments":[],"categories_sizes":[],"default_left":[1,0,1,0,0,0,1,0,0,0,0,0,0,0,0],"id":11,"left_children":[1,3,5,7,9,11,13,-1,-1,-1,-1,-1,-1,-1,-1],"loss_changes":[1.7397721E12,4.824708E11,2.930812E11,7.1319945E10,1.0832629E11,1.0146441E11,5.6600035E10,0E0,0E0,0E0,0E0,0E0,0E0,0E0,0E0],"parents":[2147483647,0,0,1,1,2,2,3,3,4,4,5,5,6,6],"right_children":[2,4,6,8,10,12,14,-1,-1,-1,-1,-1,-1,-1,-1],"split_conditions":[3.2799E4,2.7695E4,3.985E4,2.4533E4,8E0,3.4392E4,4.2272E4,2.1475182E2,2.4369933E2,2.5689737E2,2.8760065E2,2.987003E2,3.3075174E2,3.5468E2,3.964946E2],"split_indices":[7,7,8,7,0,9,9,0,0,0,0,0,0,0,0],"split_type":[0,0,0,0,0,0,0,0,0,0,0,0,0,0,0],"sum_hessian":[1.45366E5,8.9887E4,5.5479E4,3.4703E4,5.5184E4,4.1543E4,1.3936E4,1.5476E4,1.9227E4,1.6515E4,3.8669E4,1.6639E4,2.4904E4,8.501E3,5.435E3],"tree_param":{"num_deleted":"0","num_feature":"10","num_nodes":"15","size_leaf_vector":"1"}},{"base_weights":[2.8434979E4,2.5459342E4,3.2381215E4,2.245956E4,2.7104629E4,3.1005705E4,3.636644E4,2.1315E2,2.3979654E2,2.5196635E2,2.8095154E2,2.9953757E2,3.3244952E2,3.28558E2,3.7466797E2],"categories":[],"categories_nodes":[],"categories_segments":[],"categories_sizes":[],"default_left":[1,0,0,1,0,1,0,0,0,0,0,0,0,0,0],"id":12,"left_children":[1,3,5,7,9,11,13,-1,-1,-1,-1,-1,-1,-1,-1],"loss_changes":[1.706159E12,4.0844552E11,3.4141635E11,5.057387E10,1.004368E11,1.08447924E11,6.068319E10,0E0,0E0,0E0,0E0,0E0,0E0,0E0,0E0],"parents":[2147483647,0,0,1,1,2,2,3,3,4,4,5,5,6,6],"right_children":[2,4,6,8,10,12,14,-1,-1,-1,-1,-1,-1,-1,-1],"split_conditions":[3.2057E4,2.6919E4,3.9804E4,2.5222E4,8E0,3.5975E4,1.67E2,2.1315E2,2.3979654E2,2.5196635E2,2.8095154E2,2.9953757E2,3.3244952E2,3.28558E2,3.7466797E2],"split_indices":[7,7,7,8,0,9,5,0,0,0,0,0,0,0,0],"split_type":[0,0,0,0,0,0,0,0,0,0,0,0,0,0,0],"sum_hessian":[1.45366E5,8.2879E4,6.2487E4,2.9361E4,5.3518E4,4.646E4,1.6027E4,1.6758E4,1.2603E4,1.8298E4,3.522E4,3.162E4,1.484E4,3.832E3,1.2195E4],"tree_param":{"num_deleted":"0","num_feature":"10","num_nodes":"15","size_leaf_vector":"1"}},{"base_weights":[2.8150646E4,2.548495E4,3.2469066E4,2.2688223E4,2.7333664E4,3.1203299E4,3.653068E4,2.1040927E2,2.3942902E2,2.519874E2,2.8228662E2,3.01595E2,3.3381207E2,3.2394318E2,3.7509195E2],"categories":[],"categories_nodes":[],"categories_segments":[],"categories_sizes":[],"default_left":[1,0,1,0,0,0,0,0,0,0,0,0,0,0,0],"id":13,"left_children":[1,3,5,7,9,11,13,-1,-1,-1,-1,-1,-1,-1,-1],"loss_changes":[1.672571E12,4.641333E11,2.840886E11,7.344226E10,1.0268495E11,9.516876E10,5.2114227E10,0E0,0E0,0E0,0E0,0E0,0E0,0E0,0E0],"parents":[2147483647,0,0,1,1,2,2,3,3,4,4,5,5,6,6],"right_children":[2,4,6,8,10,12,14,-1,-1,-1,-1,-1,-1,-1,-1],"split_conditions":[3.2799E4,2.7841E4,3.9738E4,2.4533E4,8E0,3.7918E4,1.58E2,2.1040927E2,2.3942902E2,2.519874E2,2.8228662E2,3.01595E2,3.3381207E2,3.2394318E2,3.7509195E2],"split_indices":[7,7,9,7,0,7,5,0,0,0,0,0,0,0,0],"split_type":[0,0,0,0,0,0,0,0,0,0,0,0,0,0,0],"sum_hessian":[1.45366E5,8.9887E4,5.5479E4,3.5777E4,5.411E4,4.2304E4,1.3175E4,1.5476E4,2.0301E4,1.5992E4,3.8118E4,2.8608E4,1.3696E4,2.527E3,1.0648E4],"tree_param":{"num_deleted":"0","num_feature":"10","num_nodes":"15","size_leaf_vector":"1"}},{"base_weights":[2.7869154E4,2.4951781E4,3.1738123E4,2.2010855E4,2.656479E4,3.0387336E4,3.5651723E4,2.088283E2,2.3508995E2,2.4695161E2,2.7535394E2,2.9129678E2,3.222404E2,3.212137E2,3.6713898E2],"categories":[],"categories_nodes":[],"categories_segments":[],"categories_sizes":[],"default_left":[1,0,0,1,0,1,0,0,0,0,0,0,0,0,0],"id":14,"left_children":[1,3,5,7,9,11,13,-1,-1,-1,-1,-1,-1,-1,-1],"loss_changes":[1.639998E12,3.9257847E11,3.2926125E11,4.912893E10,9.643963E10,1.0638013E11,5.892368E10,0E0,0E0,0E0,0E0,0E0,0E0,0E0,0E0],"parents":[2147483647,0,0,1,1,2,2,3,3,4,4,5,5,6,6],"right_children":[2,4,6,8,10,12,14,-1,-1,-1,-1,-1,-1,-1,-1],"split_conditions":[3.2057E4,2.6919E4,3.9804E4,2.5222E4,8E0,3.5193E4,1.65E2,2.088283E2,2.3508995E2,2.4695161E2,2.7535394E2,2.9129678E2,3.222404E2,3.212137E2,3.6713898E2],"split_indices":[7,7,7,8,0,8,5,0,0,0,0,0,0,0,0],"split_type":[0,0,0,0,0,0,0,0,0,0,0,0,0,0,0],"sum_hessian":[1.45366E5,8.2879E4,6.2487E4,2.9361E4,5.3518E4,4.646E4,1.6027E4,1.6758E4,1.2603E4,1.8298E4,3.522E4,2.7587E4,1.8873E4,3.714E3,1.2313E4],"tree_param":{"num_deleted":"0","num_feature":"10","num_nodes":"15","size_leaf_vector":"1"}},{"base_weights":[2.7590479E4,2.4976877E4,3.1824508E4,2.2426852E4,2.6928006E4,3.0527914E4,3.5687168E4,2.0801682E2,2.376781E2,2.4762775E2,2.7785745E2,2.8656076E2,3.1777335E2,3.4099225E2,3.8164175E2],"categories":[],"categories_nodes":[],"categories_segments":[],"categories_sizes":[],"default_left":[1,0,1,0,0,0,1,0,0,0,0,0,0,0,0],"id":15,"left_children":[1,3,5,7,9,11,13,-1,-1,-1,-1,-1,-1,-1,-1],"loss_changes":[1.6078529E12,4.4663046E11,2.7676534E11,8.443344E10,9.388111E10,9.625089E10,5.351722E10,0E0,0E0,0E0,0E0,0E0,0E0,0E0,0E0],"parents":[2147483647,0,0,1,1,2,2,3,3,4,4,5,5,6,6],"right_children":[2,4,6,8,10,12,14,-1,-1,-1,-1,-1,-1,-1,-1],"split_conditions":[3.2799E4,2.8264E4,3.985E4,2.4963E4,8E0,3.4392E4,4.2272E4,2.0801682E2,2.376781E2,2.4762775E2,2.7785745E2,2.8656076E2,3.1777335E2,3.4099225E2,3.8164175E2],"split_indices":[7,7,8,7,0,9,9,0,0,0,0,0,0,0,0],"split_type":[0,0,0,0,0,0,0,0,0,0,0,0,0,0,0],"sum_hessian":[1.45366E5,8.9887E4,5.5479E4,3.8969E4,5.0918E4,4.1543E4,1.3936E4,1.7625E4,2.1344E4,1.4456E4,3.6462E4,1.6639E4,2.4904E4,8.501E3,5.435E3],"tree_param":{"num_deleted":"0","num_feature":"10","num_nodes":"15","size_leaf_vector":"1"}},{"base_weights":[2.731459E4,2.4390008E4,3.1025043E4,2.1570896E4,2.5983322E4,2.9682992E4,3.48755E4,2.0027667E2,2.2638623E2,2.4175642E2,2.6941177E2,2.7949496E2,3.0971637E2,3.3198508E2,3.7065698E2],"categories":[],"categories_nodes":[],"categories_segments":[],"categories_sizes":[],"default_left":[1,0,0,0,0,0,1,0,0,0,0,0,0,0,0],"id":16,"left_children":[1,3,5,7,9,11,13,-1,-1,-1,-1,-1,-1,-1,-1],"loss_changes":[1.5766976E12,3.6460665E11,3.3005398E11,4.7927263E10,8.927576E10,1.05281225E11,5.9569603E10,0E0,0E0,0E0,0E0,0E0,0E0,0E0,0E0],"parents":[2147483647,0,0,1,1,2,2,3,3,4,4,5,5,6,6],"right_children":[2,4,6,8,10,12,14,-1,-1,-1,-1,-1,-1,-1,-1],"split_conditions":[3.1903E4,2.6919E4,3.9637E4,2.448E4,8E0,3.4183E4,4.0282E4,2.0027667E2,2.2638623E2,2.4175642E2,2.6941177E2,2.7949496E2,3.0971637E2,3.3198508E2,3.7065698E2],"split_indices":[7,7,7,8,0,9,9,0,0,0,0,0,0,0,0],"split_type":[0,0,0,0,0,0,0,0,0,0,0,0,0,0,0],"sum_hessian":[1.45366E5,8.1296E4,6.407E4,2.9361E4,5.1935E4,4.7517E4,1.6553E4,1.2015E4,1.7346E4,1.7997E4,3.3938E4,2.0271E4,2.7246E4,9.384E3,7.169E3],"tree_param":{"num_deleted":"0","num_feature":"10","num_nodes":"15","size_leaf_vector":"1"}},{"base_weights":[2.7041459E4,2.4478672E4,3.119317E4,2.197728E4,2.639259E4,2.9917023E4,3.499492E4,2.0382222E2,2.3293391E2,2.4268521E2,2.7234024E2,2.8083554E2,3.1140833E2,3.1585037E2,3.6124512E2],"categories":[],"categories_nodes":[],"categories_segments":[],"categories_sizes":[],"default_left":[1,0,1,0,0,0,0,0,0,0,0,0,0,0,0],"id":17,"left_children":[1,3,5,7,9,11,13,-1,-1,-1,-1,-1,-1,-1,-1],"loss_changes":[1.5459366E12,4.2975258E11,2.6812088E11,8.133594E10,9.034531E10,9.23418E10,5.253995E10,0E0,0E0,0E0,0E0,0E0,0E0,0E0,0E0],"parents":[2147483647,0,0,1,1,2,2,3,3,4,4,5,5,6,6],"right_children":[2,4,6,8,10,12,14,-1,-1,-1,-1,-1,-1,-1,-1],"split_conditions":[3.2799E4,2.8264E4,3.985E4,2.4963E4,8E0,3.4392E4,1.72E2,2.0382222E2,2.3293391E2,2.4268521E2,2.7234024E2,2.8083554E2,3.1140833E2,3.1585037E2,3.6124512E2],"split_indices":[7,7,8,7,0,9,5,0,0,0,0,0,0,0,0],"split_type":[0,0,0,0,0,0,0,0,0,0,0,0,0,0,0],"sum_hessian":[1.45366E5,8.9887E4,5.5479E4,3.8969E4,5.0918E4,4.1543E4,1.3936E4,1.7625E4,2.1344E4,1.4456E4,3.6462E4,1.6639E4,2.4904E4,3.475E3,1.0461E4],"tree_param":{"num_deleted":"0","num_feature":"10","num_nodes":"15","size_leaf_vector":"1"}},{"base_weights":[2.677106E4,2.3903686E4,3.0408934E4,2.0930338E4,2.535714E4,2.9088795E4,3.419653E4,1.9358463E2,2.1855133E2,2.362923E2,2.6321478E2,2.7891672E2,3.0914853E2,3.1080243E2,3.534318E2],"categories":[],"categories_nodes":[],"categories_segments":[],"categories_sizes":[],"default_left":[1,0,0,0,0,1,0,0,0,0,0,0,0,0,0],"id":18,"left_children":[1,3,5,7,9,11,13,-1,-1,-1,-1,-1,-1,-1,-1],"loss_changes":[1.5156118E12,3.508032E11,3.1937528E11,3.838732E10,9.035999E10,1.0301211E11,5.805336E10,0E0,0E0,0E0,0E0,0E0,0E0,0E0,0E0],"parents":[2147483647,0,0,1,1,2,2,3,3,4,4,5,5,6,6],"right_children":[2,4,6,8,10,12,14,-1,-1,-1,-1,-1,-1,-1,-1],"split_conditions":[3.1903E4,2.6522E4,3.9637E4,2.3927E4,8E0,3.5193E4,1.72E2,1.9358463E2,2.1855133E2,2.362923E2,2.6321478E2,2.7891672E2,3.0914853E2,3.1080243E2,3.534318E2],"split_indices":[7,7,7,8,0,8,5,0,0,0,0,0,0,0,0],"split_type":[0,0,0,0,0,0,0,0,0,0,0,0,0,0,0],"sum_hessian":[1.45366E5,8.1296E4,6.407E4,2.6697E4,5.4599E4,4.7517E4,1.6553E4,9.897E3,1.68E4,1.9566E4,3.5033E4,2.8711E4,1.8806E4,4.46E3,1.2093E4],"tree_param":{"num_deleted":"0","num_feature":"10","num_nodes":"15","size_leaf_vector":"1"}},{"base_weights":[2.6503365E4,2.3990502E4,3.0574195E4,2.1535857E4,2.586865E4,2.9361082E4,3.44669E4,1.9882666E2,2.2756477E2,2.3784654E2,2.669421E2,2.8366135E2,3.1437088E2,3.048546E2,3.540883E2],"categories":[],"categories_nodes":[],"categories_segments":[],"categories_sizes":[],"default_left":[1,0,1,0,0,0,0,0,0,0,0,0,0,0,0],"id":19,"left_children":[1,3,5,7,9,11,13,-1,-1,-1,-1,-1,-1,-1,-1],"loss_changes":[1.4862852E12,4.1384778E11,2.6098218E11,7.818392E10,8.696889E10,8.649074E10,4.8333062E10,0E0,0E0,0E0,0E0,0E0,0E0,0E0,0E0],"parents":[2147483647,0,0,1,1,2,2,3,3,4,4,5,5,6,6],"right_children":[2,4,6,8,10,12,14,-1,-1,-1,-1,-1,-1,-1,-1],"split_conditions":[3.2799E4,2.8264E4,3.9738E4,2.4747E4,8E0,3.7918E4,1.58E2,1.9882666E2,2.2756477E2,2.3784654E2,2.669421E2,2.8366135E2,3.1437088E2,3.048546E2,3.540883E2],"split_indices":[7,7,9,7,0,7,5,0,0,0,0,0,0,0,0],"split_type":[0,0,0,0,0,0,0,0,0,0,0,0,0,0,0],"sum_hessian":[1.45366E5,8.9887E4,5.5479E4,3.8969E4,5.0918E4,4.2304E4,1.3175E4,1.6559E4,2.241E4,1.4456E4,3.6462E4,2.8608E4,1.3696E4,2.527E3,1.0648E4],"tree_param":{"num_deleted":"0","num_feature":"10","num_nodes":"15","size_leaf_vector":"1"}},{"base_weights":[2.6238346E4,2.3427064E4,2.9805055E4,2.0511316E4,2.485236E4,2.8603844E4,3.3823965E4,1.8859177E2,2.1367139E2,2.3158623E2,2.5797626E2,2.6628058E2,2.9746555E2,3.2308023E2,3.630402E2],"categories":[],"categories_nodes":[],"categories_segments":[],"categories_sizes":[],"default_left":[1,0,1,0,0,0,1,0,0,0,0,0,0,0,0],"id":20,"left_children":[1,3,5,7,9,11,13,-1,-1,-1,-1,-1,-1,-1,-1],"loss_changes":[1.4568915E12,3.3734368E11,3.0833587E11,3.7346083E10,8.6819996E10,1.1059121E11,5.4236545E10,0E0,0E0,0E0,0E0,0E0,0E0,0E0,0E0],"parents":[2147483647,0,0,1,1,2,2,3,3,4,4,5,5,6,6],"right_children":[2,4,6,8,10,12,14,-1,-1,-1,-1,-1,-1,-1,-1],"split_conditions":[3.1903E4,2.6522E4,3.967E4,2.3698E4,8E0,3.3509E4,4.2272E4,1.8859177E2,2.1367139E2,2.3158623E2,2.5797626E2,2.6628058E2,2.9746555E2,3.2308023E2,3.630402E2],"split_indices":[7,7,8,8,0,9,9,0,0,0,0,0,0,0,0],"split_type":[0,0,0,0,0,0,0,0,0,0,0,0,0,0,0],"sum_hessian":[1.45366E5,8.1296E4,6.407E4,2.6697E4,5.4599E4,4.9333E4,1.4737E4,9.118E3,1.7579E4,1.9566E4,3.5033E4,1.8086E4,3.1247E4,9.155E3,5.582E3],"tree_param":{"num_deleted":"0","num_feature":"10","num_nodes":"15","size_leaf_vector":"1"}},{"base_weights":[2.5975979E4,2.3511775E4,2.996798E4,2.1103281E4,2.5354613E4,2.877594E4,3.3793062E4,1.9771396E2,2.2574713E2,2.3310478E2,2.6164383E2,2.7794797E2,3.0823157E2,2.987004E2,3.4721185E2],"categories":[],"categories_nodes":[],"categories_segments":[],"categories_sizes":[],"default_left":[1,0,1,1,0,0,0,0,0,0,0,0,0,0,0],"id":21,"left_children":[1,3,5,7,9,11,13,-1,-1,-1,-1,-1,-1,-1,-1],"loss_changes":[1.4292846E12,3.9842952E11,2.5199378E11,7.592634E10,8.3676365E10,8.411886E10,4.693636E10,0E0,0E0,0E0,0E0,0E0,0E0,0E0,0E0],"parents":[2147483647,0,0,1,1,2,2,3,3,4,4,5,5,6,6],"right_children":[2,4,6,8,10,12,14,-1,-1,-1,-1,-1,-1,-1,-1],"split_conditions":[3.2799E4,2.8264E4,3.9738E4,2.5721E4,8E0,3.7918E4,1.58E2,1.9771396E2,2.2574713E2,2.3310478E2,2.6164383E2,2.7794797E2,3.0823157E2,2.987004E2,3.4721185E2],"split_indices":[7,7,9,8,0,7,5,0,0,0,0,0,0,0,0],"split_type":[0,0,0,0,0,0,0,0,0,0,0,0,0,0,0],"sum_hessian":[1.45366E5,8.9887E4,5.5479E4,3.8969E4,5.0918E4,4.2304E4,1.3175E4,2.0462E4,1.8507E4,1.4456E4,3.6462E4,2.8608E4,1.3696E4,2.527E3,1.0648E4],"tree_param":{"num_deleted":"0","num_feature":"10","num_nodes":"15","size_leaf_vector":"1"}},{"base_weights":[2.5716232E4,2.3293824E4,2.9696496E4,2.089226E4,2.5114025E4,2.8464941E4,3.3331312E4,1.9365622E2,2.2151926E2,2.2816159E2,2.5824686E2,2.6682724E2,2.964532E2,3.002749E2,3.4423807E2],"categories":[],"categories_nodes":[],"categories_segments":[],"categories_sizes":[],"default_left":[1,0,1,0,0,0,0,0,0,0,0,0,0,0,0],"id":22,"left_children":[1,3,5,7,9,11,13,-1,-1,-1,-1,-1,-1,-1,-1],"loss_changes":[1.4009143E12,3.9452462E11,2.4523257E11,7.451391E10,8.335131E10,8.56372E10,4.9179263E10,0E0,0E0,0E0,0E0,0E0,0E0,0E0,0E0],"parents":[2147483647,0,0,1,1,2,2,3,3,4,4,5,5,6,6],"right_children":[2,4,6,8,10,12,14,-1,-1,-1,-1,-1,-1,-1,-1],"split_conditions":[3.2852E4,2.8264E4,3.985E4,2.4963E4,7E0,3.4392E4,1.72E2,1.9365622E2,2.2151926E2,2.2816159E2,2.5824686E2,2.6682724E2,2.964532E2,3.002749E2,3.4423807E2],"split_indices":[7,7,8,7,0,9,5,0,0,0,0,0,0,0,0],"split_type":[0,0,0,0,0,0,0,0,0,0,0,0,0,0,0],"sum_hessian":[1.45366E5,9.0372E4,5.4994E4,3.8969E4,5.1403E4,4.1083E4,1.3911E4,1.7625E4,2.1344E4,1.215E4,3.9253E4,1.6378E4,2.4705E4,3.464E3,1.0447E4],"tree_param":{"num_deleted":"0","num_feature":"10","num_nodes":"15","size_leaf_vector":"1"}},{"base_weights":[2.5459084E4,2.272936E4,2.892232E4,1.9895826E4,2.4114469E4,2.7678986E4,3.264741E4,1.8276201E2,2.0734818E2,2.2470543E2,2.5031937E2,2.6496304E2,2.941317E2,2.9311807E2,3.3651074E2],"categories":[],"categories_nodes":[],"categories_segments":[],"categories_sizes":[],"default_left":[1,0,0,0,0,1,0,0,0,0,0,0,0,0,0],"id":23,"left_children":[1,3,5,7,9,11,13,-1,-1,-1,-1,-1,-1,-1,-1],"loss_changes":[1.3735842E12,3.1859094E11,2.9584523E11,3.5900097E10,8.178683E10,9.775664E10,5.267312E10,0E0,0E0,0E0,0E0,0E0,0E0,0E0,0E0],"parents":[2147483647,0,0,1,1,2,2,3,3,4,4,5,5,6,6],"right_children":[2,4,6,8,10,12,14,-1,-1,-1,-1,-1,-1,-1,-1],"split_conditions":[3.1903E4,2.6522E4,3.9804E4,2.3698E4,8E0,3.5114E4,1.65E2,1.8276201E2,2.0734818E2,2.2470543E2,2.5031937E2,2.6496304E2,2.941317E2,2.9311807E2,3.3651074E2],"split_indices":[7,7,7,8,0,8,5,0,0,0,0,0,0,0,0],"split_type":[0,0,0,0,0,0,0,0,0,0,0,0,0,0,0],"sum_hessian":[1.45366E5,8.1296E4,6.407E4,2.6697E4,5.4599E4,4.8043E4,1.6027E4,9.118E3,1.7579E4,1.9566E4,3.5033E4,2.8573E4,1.947E4,3.714E3,1.2313E4],"tree_param":{"num_deleted":"0","num_feature":"10","num_nodes":"15","size_leaf_vector":"1"}},{"base_weights":[2.5204508E4,2.2920041E4,2.9264268E4,2.0472611E4,2.4683951E4,2.8144977E4,3.3093145E4,1.9171152E2,2.1910439E2,2.2383423E2,2.5374509E2,2.5965195E2,2.9024802E2,2.9002316E2,3.3933707E2],"categories":[],"categories_nodes":[],"categories_segments":[],"categories_sizes":[],"default_left":[1,0,1,1,0,0,0,0,0,0,0,0,0,0,0],"id":24,"left_children":[1,3,5,7,9,11,13,-1,-1,-1,-1,-1,-1,-1,-1],"loss_changes":[1.3475208E12,4.010971E11,2.2338024E11,7.250379E10,8.531005E10,7.693192E10,3.9707476E10,0E0,0E0,0E0,0E0,0E0,0E0,0E0,0E0],"parents":[2147483647,0,0,1,1,2,2,3,3,4,4,5,5,6,6],"right_children":[2,4,6,8,10,12,14,-1,-1,-1,-1,-1,-1,-1,-1],"split_conditions":[3.3171E4,2.8264E4,4.0282E4,2.5721E4,7E0,3.3138E4,1.58E2,1.9171152E2,2.1910439E2,2.2383423E2,2.5374509E2,2.5965195E2,2.9024802E2,2.9002316E2,3.3933707E2],"split_indices":[7,7,9,8,0,9,5,0,0,0,0,0,0,0,0],"split_type":[0,0,0,0,0,0,0,0,0,0,0,0,0,0,0],"sum_hessian":[1.45366E5,9.3026E4,5.234E4,3.8969E4,5.4057E4,4.0507E4,1.1833E4,2.0462E4,1.8507E4,1.2488E4,4.1569E4,1.1657E4,2.885E4,2.023E3,9.81E3],"tree_param":{"num_deleted":"0","num_feature":"10","num_nodes":"15","size_leaf_vector":"1"}},{"base_weights":[2.4952477E4,2.269085E4,2.8971646E4,2.0267896E4,2.443712E4,2.7817668E4,3.2612568E4,1.8497748E2,2.13094E2,2.2420065E2,2.5209895E2,2.5590378E2,2.8649036E2,2.8718915E2,3.3484625E2],"categories":[],"categories_nodes":[],"categories_segments":[],"categories_sizes":[],"default_left":[1,0,1,0,0,0,0,0,0,0,0,0,0,0,0],"id":25,"left_children":[1,3,5,7,9,11,13,-1,-1,-1,-1,-1,-1,-1,-1],"loss_changes":[1.3207108E12,3.9311114E11,2.1900558E11,7.145102E10,8.369734E10,7.287184E10,4.1790996E10,0E0,0E0,0E0,0E0,0E0,0E0,0E0,0E0],"parents":[2147483647,0,0,1,1,2,2,3,3,4,4,5,5,6,6],"right_children":[2,4,6,8,10,12,14,-1,-1,-1,-1,-1,-1,-1,-1],"split_conditions":[3.3171E4,2.8264E4,3.9928E4,2.5331E4,8E0,3.2892E4,1.58E2,1.8497748E2,2.13094E2,2.2420065E2,2.5209895E2,2.5590378E2,2.8649036E2,2.8718915E2,3.3484625E2],"split_indices":[7,7,9,9,0,9,5,0,0,0,0,0,0,0,0],"split_type":[0,0,0,0,0,0,0,0,0,0,0,0,0,0,0],"sum_hessian":[1.45366E5,9.3026E4,5.234E4,3.8969E4,5.4057E4,3.975E4,1.259E4,1.4442E4,2.4527E4,1.4982E4,3.9075E4,1.0813E4,2.8937E4,2.31E3,1.028E4],"tree_param":{"num_deleted":"0","num_feature":"10","num_nodes":"15","size_leaf_vector":"1"}},{"base_weights":[2.4702967E4,2.2051838E4,2.8066486E4,1.9296254E4,2.3398844E4,2.6850748E4,3.1708916E4,1.7769156E2,2.0155144E2,2.1675693E2,2.4224048E2,2.571051E2,2.8568185E2,2.8707178E2,3.277788E2],"categories":[],"categories_nodes":[],"categories_segments":[],"categories_sizes":[],"default_left":[1,0,0,0,0,1,0,0,0,0,0,0,0,0,0],"id":26,"left_children":[1,3,5,7,9,11,13,-1,-1,-1,-1,-1,-1,-1,-1],"loss_changes":[1.2956373E12,3.0130622E11,2.8286806E11,3.4658583E10,7.711228E10,9.3352624E10,5.0488934E10,0E0,0E0,0E0,0E0,0E0,0E0,0E0,0E0],"parents":[2147483647,0,0,1,1,2,2,3,3,4,4,5,5,6,6],"right_children":[2,4,6,8,10,12,14,-1,-1,-1,-1,-1,-1,-1,-1],"split_conditions":[3.1903E4,2.6522E4,3.9804E4,2.3302E4,2.9781E4,3.5193E4,1.72E2,1.7769156E2,2.0155144E2,2.1675693E2,2.4224048E2,2.571051E2,2.8568185E2,2.8707178E2,3.277788E2],"split_indices":[7,7,7,7,9,8,5,0,0,0,0,0,0,0,0],"split_type":[0,0,0,0,0,0,0,0,0,0,0,0,0,0,0],"sum_hessian":[1.45366E5,8.1296E4,6.407E4,2.6697E4,5.4599E4,4.8043E4,1.6027E4,9.618E3,1.7079E4,1.7689E4,3.691E4,2.8883E4,1.916E4,4.216E3,1.1811E4],"tree_param":{"num_deleted":"0","num_feature":"10","num_nodes":"15","size_leaf_vector":"1"}},{"base_weights":[2.4455951E4,2.2238088E4,2.8397346E4,1.9861684E4,2.395081E4,2.7186916E4,3.1781887E4,1.8747163E2,2.147572E2,2.1699945E2,2.4626468E2,2.556037E2,2.8364844E2,2.856773E2,3.2837085E2],"categories":[],"categories_nodes":[],"categories_segments":[],"categories_sizes":[],"default_left":[1,0,1,1,0,0,0,0,0,0,0,0,0,0,0],"id":27,"left_children":[1,3,5,7,9,11,13,-1,-1,-1,-1,-1,-1,-1,-1],"loss_changes":[1.2700772E12,3.7815845E11,2.1356557E11,6.969885E10,8.167568E10,7.315286E10,4.5803897E10,0E0,0E0,0E0,0E0,0E0,0E0,0E0,0E0],"parents":[2147483647,0,0,1,1,2,2,3,3,4,4,5,5,6,6],"right_children":[2,4,6,8,10,12,14,-1,-1,-1,-1,-1,-1,-1,-1],"split_conditions":[3.3171E4,2.8264E4,3.985E4,2.6336E4,7E0,3.4824E4,1.72E2,1.8747163E2,2.147572E2,2.1699945E2,2.4626468E2,2.556037E2,2.8364844E2,2.856773E2,3.2837085E2],"split_indices":[7,7,8,8,0,9,5,0,0,0,0,0,0,0,0],"split_type":[0,0,0,0,0,0,0,0,0,0,0,0,0,0,0],"sum_hessian":[1.45366E5,9.3026E4,5.234E4,3.8969E4,5.4057E4,3.8559E4,1.3781E4,2.3059E4,1.591E4,1.2488E4,4.1569E4,1.6205E4,2.2354E4,3.413E3,1.0368E4],"tree_param":{"num_deleted":"0","num_feature":"10","num_nodes":"15","size_leaf_vector":"1"}},{"base_weights":[2.4211404E4,2.1611809E4,2.7509545E4,1.8908363E4,2.2933328E4,2.628781E4,3.1014855E4,1.7287543E2,1.9697714E2,2.1359615E2,2.3811615E2,2.5113327E2,2.7887268E2,2.811178E2,3.208312E2],"categories":[],"categories_nodes":[],"categories_segments":[],"categories_sizes":[],"default_left":[1,0,0,0,0,1,0,0,0,0,0,0,0,0,0],"id":28,"left_children":[1,3,5,7,9,11,13,-1,-1,-1,-1,-1,-1,-1,-1],"loss_changes":[1.2457586E12,2.9001515E11,2.7357348E11,3.3817625E10,7.49585E10,8.856273E10,5.0435457E10,0E0,0E0,0E0,0E0,0E0,0E0,0E0,0E0],"parents":[2147483647,0,0,1,1,2,2,3,3,4,4,5,5,6,6],"right_children":[2,4,6,8,10,12,14,-1,-1,-1,-1,-1,-1,-1,-1],"split_conditions":[3.1903E4,2.6522E4,3.9637E4,2.3579E4,8E0,3.4877E4,1.72E2,1.7287543E2,1.9697714E2,2.1359615E2,2.3811615E2,2.5113327E2,2.7887268E2,2.811178E2,3.208312E2],"split_indices":[7,7,7,8,0,8,5,0,0,0,0,0,0,0,0],"split_type":[0,0,0,0,0,0,0,0,0,0,0,0,0,0,0],"sum_hessian":[1.45366E5,8.1296E4,6.407E4,2.6697E4,5.4599E4,4.7517E4,1.6553E4,8.751E3,1.7946E4,1.9566E4,3.5033E4,2.7408E4,2.0109E4,4.46E3,1.2093E4],"tree_param":{"num_deleted":"0","num_feature":"10","num_nodes":"15","size_leaf_vector":"1"}},{"base_weights":[2.3969305E4,2.1794398E4,2.7834363E4,1.9462762E4,2.3474854E4,2.682429E4,3.177848E4,1.7740973E2,2.0475822E2,2.1264021E2,2.4138495E2,2.6178854E2,2.9754288E2,2.763882E2,3.2525418E2],"categories":[],"categories_nodes":[],"categories_segments":[],"categories_sizes":[],"default_left":[1,0,1,0,0,0,0,0,0,0,0,0,0,0,0],"id":29,"left_children":[1,3,5,7,9,11,13,-1,-1,-1,-1,-1,-1,-1,-1],"loss_changes":[1.221373E12,3.6404042E11,2.0766419E11,6.761113E10,7.880049E10,7.803503E10,3.2081183E10,0E0,0E0,0E0,0E0,0E0,0E0,0E0,0E0],"parents":[2147483647,0,0,1,1,2,2,3,3,4,4,5,5,6,6],"right_children":[2,4,6,8,10,12,14,-1,-1,-1,-1,-1,-1,-1,-1],"split_conditions":[3.3171E4,2.8264E4,4.0874E4,2.5331E4,7E0,4.0791E4,1.58E2,1.7740973E2,2.0475822E2,2.1264021E2,2.4138495E2,2.6178854E2,2.9754288E2,2.763882E2,3.2525418E2],"split_indices":[7,7,9,9,0,7,5,0,0,0,0,0,0,0,0],"split_type":[0,0,0,0,0,0,0,0,0,0,0,0,0,0,0],"sum_hessian":[1.45366E5,9.3026E4,5.234E4,3.8969E4,5.4057E4,4.1675E4,1.0665E4,1.4442E4,2.4527E4,1.2488E4,4.1569E4,3.416E4,7.515E3,1.636E3,9.029E3],"tree_param":{"num_deleted":"0","num_feature":"10","num_nodes":"15","size_leaf_vector":"1"}},{"base_weights":[2.3729625E4,2.1255232E4,2.7061291E4,1.8848744E4,2.2714596E4,2.592997E4,3.0709084E4,1.7157158E2,1.97143E2,2.1060443E2,2.3531425E2,2.4054253E2,2.696815E2,2.9383218E2,3.3167633E2],"categories":[],"categories_nodes":[],"categories_segments":[],"categories_sizes":[],"default_left":[1,0,1,0,0,0,1,0,0,0,0,0,0,0,0],"id":30,"left_children":[1,3,5,7,9,11,13,-1,-1,-1,-1,-1,-1,-1,-1],"loss_changes":[1.197801E12,2.9254012E11,2.548501E11,4.5777682E10,6.96611E10,9.144212E10,4.680948E10,0E0,0E0,0E0,0E0,0E0,0E0,0E0,0E0],"parents":[2147483647,0,0,1,1,2,2,3,3,4,4,5,5,6,6],"right_children":[2,4,6,8,10,12,14,-1,-1,-1,-1,-1,-1,-1,-1],"split_conditions":[3.211E4,2.7228E4,3.967E4,2.3529E4,8E0,3.3509E4,4.2866E4,1.7157158E2,1.97143E2,2.1060443E2,2.3531425E2,2.4054253E2,2.696815E2,2.9383218E2,3.3167633E2],"split_indices":[7,7,8,7,0,9,9,0,0,0,0,0,0,0,0],"split_type":[0,0,0,0,0,0,0,0,0,0,0,0,0,0,0],"sum_hessian":[1.45366E5,8.3419E4,6.1947E4,3.1496E4,5.1923E4,4.7289E4,1.4658E4,1.0668E4,2.0828E4,1.7173E4,3.475E4,1.6857E4,3.0432E4,9.531E3,5.127E3],"tree_param":{"num_deleted":"0","num_feature":"10","num_nodes":"15","size_leaf_vector":"1"}},{"base_weights":[2.3492342E4,2.1443334E4,2.7439645E4,1.9125268E4,2.3109805E4,2.6428666E4,3.1199477E4,1.8009204E2,2.0673918E2,2.111253E2,2.3843256E2,2.585228E2,2.958225E2,2.7126025E2,3.1919574E2],"categories":[],"categories_nodes":[],"categories_segments":[],"categories_sizes":[],"default_left":[1,0,1,1,0,0,0,0,0,0,0,0,0,0,0],"id":31,"left_children":[1,3,5,7,9,11,13,-1,-1,-1,-1,-1,-1,-1,-1],"loss_changes":[1.1751433E12,3.6923716E11,1.8797612E11,6.88149E10,8.104444E10,7.0399295E10,2.9993468E10,0E0,0E0,0E0,0E0,0E0,0E0,0E0,0E0],"parents":[2147483647,0,0,1,1,2,2,3,3,4,4,5,5,6,6],"right_children":[2,4,6,8,10,12,14,-1,-1,-1,-1,-1,-1,-1,-1],"split_conditions":[3.349E4,2.8408E4,4.0874E4,2.6336E4,8E0,4.1688E4,1.58E2,1.8009204E2,2.0673918E2,2.111253E2,2.3843256E2,2.585228E2,2.958225E2,2.7126025E2,3.1919574E2],"split_indices":[7,7,9,8,0,7,5,0,0,0,0,0,0,0,0],"split_type":[0,0,0,0,0,0,0,0,0,0,0,0,0,0,0],"sum_hessian":[1.45366E5,9.5697E4,4.9669E4,4.0029E4,5.5668E4,3.915E4,1.0519E4,2.3271E4,1.6758E4,1.496E4,4.0708E4,3.3108E4,6.042E3,1.586E3,8.933E3],"tree_param":{"num_deleted":"0","num_feature":"10","num_nodes":"15","size_leaf_vector":"1"}},{"base_weights":[2.3257432E4,1.9937865E4,2.5648074E4,1.791595E4,2.120836E4,2.4203486E4,2.8773596E4,1.6538638E2,1.8702037E2,2.0013553E2,2.213607E2,2.0616232E2,2.4834233E2,2.7516827E2,3.1439133E2],"categories":[],"categories_nodes":[],"categories_segments":[],"categories_sizes":[],"default_left":[0,0,1,0,0,0,1,0,0,0,0,0,0,0,0],"id":32,"left_children":[1,3,5,7,9,11,13,-1,-1,-1,-1,-1,-1,-1,-1],"loss_changes":[1.153098E12,1.5597149E11,3.808512E11,2.5126502E10,4.0981496E10,1.3026669E11,8.859838E10,0E0,0E0,0E0,0E0,0E0,0E0,0E0,0E0],"parents":[2147483647,0,0,1,1,2,2,3,3,4,4,5,5,6,6],"right_children":[2,4,6,8,10,12,14,-1,-1,-1,-1,-1,-1,-1,-1],"split_conditions":[3.0762E4,2.6021E4,3.71E4,2.3063E4,2.9397E4,7E0,4.0874E4,1.6538638E2,1.8702037E2,2.0013553E2,2.213607E2,2.0616232E2,2.4834233E2,2.7516827E2,3.1439133E2],"split_indices":[7,7,7,7,9,0,9,0,0,0,0,0,0,0,0],"split_type":[0,0,0,0,0,0,0,0,0,0,0,0,0,0,0],"sum_hessian":[1.45366E5,6.0863E4,8.4503E4,2.3492E4,3.7371E4,5.7798E4,2.6705E4,8.544E3,1.4948E4,1.6344E4,2.1027E4,8.648E3,4.915E4,1.8156E4,8.549E3],"tree_param":{"num_deleted":"0","num_feature":"10","num_nodes":"15","size_leaf_vector":"1"}},{"base_weights":[2.3024871E4,2.1014605E4,2.6897537E4,1.874262E4,2.2647947E4,2.584542E4,3.0395318E4,1.7022537E2,1.9722482E2,2.0689308E2,2.3367212E2,2.4378773E2,2.710858E2,2.7052826E2,3.1294504E2],"categories":[],"categories_nodes":[],"categories_segments":[],"categories_sizes":[],"default_left":[1,0,1,0,0,0,0,0,0,0,0,0,0,0,0],"id":33,"left_children":[1,3,5,7,9,11,13,-1,-1,-1,-1,-1,-1,-1,-1],"loss_changes":[1.1311283E12,3.547039E11,1.8200343E11,6.7131933E10,7.794275E10,7.0091014E10,3.3657192E10,0E0,0E0,0E0,0E0,0E0,0E0,0E0,0E0],"parents":[2147483647,0,0,1,1,2,2,3,3,4,4,5,5,6,6],"right_children":[2,4,6,8,10,12,14,-1,-1,-1,-1,-1,-1,-1,-1],"split_conditions":[3.349E4,2.8408E4,4.081E4,2.5331E4,8E0,3.5707E4,1.72E2,1.7022537E2,1.9722482E2,2.0689308E2,2.3367212E2,2.4378773E2,2.710858E2,2.7052826E2,3.1294504E2],"split_indices":[7,7,8,9,0,9,5,0,0,0,0,0,0,0,0],"split_type":[0,0,0,0,0,0,0,0,0,0,0,0,0,0,0],"sum_hessian":[1.45366E5,9.5697E4,4.9669E4,4.0029E4,5.5668E4,3.819E4,1.1479E4,1.4534E4,2.5495E4,1.496E4,4.0708E4,1.7681E4,2.0509E4,2.44E3,9.039E3],"tree_param":{"num_deleted":"0","num_feature":"10","num_nodes":"15","size_leaf_vector":"1"}},{"base_weights":[2.2794635E4,1.9538357E4,2.51397E4,1.7397312E4,2.0695172E4,2.3721295E4,2.820857E4,1.6159225E2,1.8182224E2,1.940455E2,2.1558981E2,2.0192787E2,2.4341714E2,2.6972433E2,3.083036E2],"categories":[],"categories_nodes":[],"categories_segments":[],"categories_sizes":[],"default_left":[0,0,1,0,0,0,1,0,0,0,0,0,0,0,0],"id":34,"left_children":[1,3,5,7,9,11,13,-1,-1,-1,-1,-1,-1,-1,-1],"loss_changes":[1.1095612E12,1.5038677E11,3.6716518E11,2.0459815E10,4.362915E10,1.2604093E11,8.571899E10,0E0,0E0,0E0,0E0,0E0,0E0,0E0,0E0],"parents":[2147483647,0,0,1,1,2,2,3,3,4,4,5,5,6,6],"right_children":[2,4,6,8,10,12,14,-1,-1,-1,-1,-1,-1,-1,-1],"split_conditions":[3.0762E4,2.5655E4,3.71E4,2.3579E4,2.8923E4,7E0,4.0874E4,1.6159225E2,1.8182224E2,1.940455E2,2.1558981E2,2.0192787E2,2.4341714E2,2.6972433E2,3.083036E2],"split_indices":[7,7,7,8,9,0,9,0,0,0,0,0,0,0,0],"split_type":[0,0,0,0,0,0,0,0,0,0,0,0,0,0,0],"sum_hessian":[1.45366E5,6.0863E4,8.4503E4,2.1355E4,3.9508E4,5.7798E4,2.6705E4,8.294E3,1.3061E4,1.585E4,2.3658E4,8.648E3,4.915E4,1.8156E4,8.549E3],"tree_param":{"num_deleted":"0","num_feature":"10","num_nodes":"15","size_leaf_vector":"1"}},{"base_weights":[2.2566701E4,2.0136236E4,2.5650264E4,1.7607121E4,2.137254E4,2.457775E4,2.9238654E4,1.6025961E2,1.8350397E2,1.9771281E2,2.2159175E2,2.2793756E2,2.5609576E2,2.6284985E2,3.0281024E2],"categories":[],"categories_nodes":[],"categories_segments":[],"categories_sizes":[],"default_left":[1,0,1,0,0,0,0,0,0,0,0,0,0,0,0],"id":35,"left_children":[1,3,5,7,9,11,13,-1,-1,-1,-1,-1,-1,-1,-1],"loss_changes":[1.0889336E12,2.538183E11,2.458659E11,3.108189E10,6.8337795E10,9.022787E10,4.458021E10,0E0,0E0,0E0,0E0,0E0,0E0,0E0,0E0],"parents":[2147483647,0,0,1,1,2,2,3,3,4,4,5,5,6,6],"right_children":[2,4,6,8,10,12,14,-1,-1,-1,-1,-1,-1,-1,-1],"split_conditions":[3.1903E4,2.6522E4,3.967E4,2.3063E4,2.9846E4,3.3509E4,1.72E2,1.6025961E2,1.8350397E2,1.9771281E2,2.2159175E2,2.2793756E2,2.5609576E2,2.6284985E2,3.0281024E2],"split_indices":[7,7,8,7,9,9,5,0,0,0,0,0,0,0,0],"split_type":[0,0,0,0,0,0,0,0,0,0,0,0,0,0,0],"sum_hessian":[1.45366E5,8.1296E4,6.407E4,2.6697E4,5.4599E4,4.9333E4,1.4737E4,8.544E3,1.8153E4,1.7995E4,3.6604E4,1.8086E4,3.1247E4,3.851E3,1.0886E4],"tree_param":{"num_deleted":"0","num_feature":"10","num_nodes":"15","size_leaf_vector":"1"}},{"base_weights":[2.2341047E4,2.0386816E4,2.6105764E4,1.8181045E4,2.1972557E4,2.5135084E4,2.9715746E4,1.7101416E2,1.9679161E2,1.9806483E2,2.2594203E2,2.4576015E2,2.8194006E2,2.575687E2,3.041566E2],"categories":[],"categories_nodes":[],"categories_segments":[],"categories_sizes":[],"default_left":[1,0,1,1,0,0,0,0,0,0,0,0,0,0,0],"id":36,"left_children":[1,3,5,7,9,11,13,-1,-1,-1,-1,-1,-1,-1,-1],"loss_changes":[1.0689519E12,3.3433217E11,1.7330445E11,6.4407732E10,7.451181E10,6.626371E10,2.8366078E10,0E0,0E0,0E0,0E0,0E0,0E0,0E0,0E0],"parents":[2147483647,0,0,1,1,2,2,3,3,4,4,5,5,6,6],"right_children":[2,4,6,8,10,12,14,-1,-1,-1,-1,-1,-1,-1,-1],"split_conditions":[3.349E4,2.8408E4,4.0874E4,2.6336E4,7E0,4.1688E4,1.58E2,1.7101416E2,1.9679161E2,1.9806483E2,2.2594203E2,2.4576015E2,2.8194006E2,2.575687E2,3.041566E2],"split_indices":[7,7,9,8,0,7,5,0,0,0,0,0,0,0,0],"split_type":[0,0,0,0,0,0,0,0,0,0,0,0,0,0,0],"sum_hessian":[1.45366E5,9.5697E4,4.9669E4,4.0029E4,5.5668E4,3.915E4,1.0519E4,2.3271E4,1.6758E4,1.2421E4,4.3247E4,3.3108E4,6.042E3,1.586E3,8.933E3],"tree_param":{"num_deleted":"0","num_feature":"10","num_nodes":"15","size_leaf_vector":"1"}},{"base_weights":[2.2117648E4,1.8953373E4,2.4396457E4,1.6831604E4,2.0056521E4,2.3014459E4,2.738656E4,1.5553682E2,1.7544882E2,1.879837E2,2.0910187E2,1.955504E2,2.3622736E2,2.6183725E2,2.9937726E2],"categories":[],"categories_nodes":[],"categories_segments":[],"categories_sizes":[],"default_left":[0,0,1,0,0,0,1,0,0,0,0,0,0,0,0],"id":37,"left_children":[1,3,5,7,9,11,13,-1,-1,-1,-1,-1,-1,-1,-1],"loss_changes":[1.0477539E12,1.421198E11,3.4856763E11,1.871079E10,4.2609934E10,1.2116505E11,8.116607E10,0E0,0E0,0E0,0E0,0E0,0E0,0E0,0E0],"parents":[2147483647,0,0,1,1,2,2,3,3,4,4,5,5,6,6],"right_children":[2,4,6,8,10,12,14,-1,-1,-1,-1,-1,-1,-1,-1],"split_conditions":[3.0762E4,2.5563E4,3.71E4,2.2801E4,2.8923E4,7E0,4.0874E4,1.5553682E2,1.7544882E2,1.879837E2,2.0910187E2,1.955504E2,2.3622736E2,2.6183725E2,2.9937726E2],"split_indices":[7,7,7,7,9,0,9,0,0,0,0,0,0,0,0],"split_type":[0,0,0,0,0,0,0,0,0,0,0,0,0,0,0],"sum_hessian":[1.45366E5,6.0863E4,8.4503E4,2.0825E4,4.0038E4,5.7798E4,2.6705E4,7.468E3,1.3357E4,1.6194E4,2.3844E4,8.648E3,4.915E4,1.8156E4,8.549E3],"tree_param":{"num_deleted":"0","num_feature":"10","num_nodes":"15","size_leaf_vector":"1"}},{"base_weights":[2.1896484E4,1.997922E4,2.558999E4,1.7817006E4,2.1533648E4,2.4576312E4,2.8960006E4,1.621773E2,1.8800363E2,1.9654822E2,2.2223607E2,2.3157556E2,2.5798245E2,2.5734366E2,2.9827795E2],"categories":[],"categories_nodes":[],"categories_segments":[],"categories_sizes":[],"default_left":[1,0,1,0,0,0,0,0,0,0,0,0,0,0,0],"id":38,"left_children":[1,3,5,7,9,11,13,-1,-1,-1,-1,-1,-1,-1,-1],"loss_changes":[1.0289005E12,3.2125433E11,1.6896754E11,6.264927E10,7.172889E10,6.5611497E10,3.1367102E10,0E0,0E0,0E0,0E0,0E0,0E0,0E0,0E0],"parents":[2147483647,0,0,1,1,2,2,3,3,4,4,5,5,6,6],"right_children":[2,4,6,8,10,12,14,-1,-1,-1,-1,-1,-1,-1,-1],"split_conditions":[3.349E4,2.8408E4,4.081E4,2.5539E4,8E0,3.5707E4,1.72E2,1.621773E2,1.8800363E2,1.9654822E2,2.2223607E2,2.3157556E2,2.5798245E2,2.5734366E2,2.9827795E2],"split_indices":[7,7,8,9,0,9,5,0,0,0,0,0,0,0,0],"split_type":[0,0,0,0,0,0,0,0,0,0,0,0,0,0,0],"sum_hessian":[1.45366E5,9.5697E4,4.9669E4,4.0029E4,5.5668E4,3.819E4,1.1479E4,1.5248E4,2.4781E4,1.496E4,4.0708E4,1.7681E4,2.0509E4,2.44E3,9.039E3],"tree_param":{"num_deleted":"0","num_feature":"10","num_nodes":"15","size_leaf_vector":"1"}},{"base_weights":[2.1677531E4,1.9607428E4,2.5031098E4,1.7290701E4,2.095747E4,2.3950133E4,2.8251486E4,1.6306195E2,1.8666814E2,1.9326752E2,2.1677904E2,2.2088986E2,2.4849904E2,2.5320203E2,2.9222705E2],"categories":[],"categories_nodes":[],"categories_segments":[],"categories_sizes":[],"default_left":[1,0,1,1,0,0,0,0,0,0,0,0,0,0,0],"id":39,"left_children":[1,3,5,7,9,11,13,-1,-1,-1,-1,-1,-1,-1,-1],"loss_changes":[1.0086798E12,2.807793E11,1.9245983E11,4.4539314E10,6.6299363E10,6.901937E10,3.893887E10,0E0,0E0,0E0,0E0,0E0,0E0,0E0,0E0],"parents":[2147483647,0,0,1,1,2,2,3,3,4,4,5,5,6,6],"right_children":[2,4,6,8,10,12,14,-1,-1,-1,-1,-1,-1,-1,-1],"split_conditions":[3.2799E4,2.7471E4,3.985E4,2.5721E4,8E0,3.3509E4,1.72E2,1.6306195E2,1.8666814E2,1.9326752E2,2.1677904E2,2.2088986E2,2.4849904E2,2.5320203E2,2.9222705E2],"split_indices":[7,7,8,8,0,9,5,0,0,0,0,0,0,0,0],"split_type":[0,0,0,0,0,0,0,0,0,0,0,0,0,0,0],"sum_hessian":[1.45366E5,8.9887E4,5.5479E4,3.31E4,5.6787E4,4.1543E4,1.3936E4,1.9303E4,1.3797E4,1.7409E4,3.9378E4,1.3547E4,2.7996E4,3.475E3,1.0461E4],"tree_param":{"num_deleted":"0","num_feature":"10","num_nodes":"15","size_leaf_vector":"1"}},{"base_weights":[2.1460768E4,1.8384717E4,2.3676041E4,1.6320773E4,1.9457803E4,2.229047E4,2.650656E4,1.5155168E2,1.7080086E2,1.8279732E2,2.032726E2,1.8936195E2,2.2888821E2,2.5342705E2,2.9053806E2],"categories":[],"categories_nodes":[],"categories_segments":[],"categories_sizes":[],"default_left":[0,0,1,0,0,0,1,0,0,0,0,0,0,0,0],"id":40,"left_children":[1,3,5,7,9,11,13,-1,-1,-1,-1,-1,-1,-1,-1],"loss_changes":[9.9013676E11,1.3448197E11,3.3082573E11,1.817392E10,4.064071E10,1.1344544E11,8.1577116E10,0E0,0E0,0E0,0E0,0E0,0E0,0E0,0E0],"parents":[2147483647,0,0,1,1,2,2,3,3,4,4,5,5,6,6],"right_children":[2,4,6,8,10,12,14,-1,-1,-1,-1,-1,-1,-1,-1],"split_conditions":[3.0762E4,2.5563E4,3.6882E4,2.3579E4,2.9131E4,7E0,4.0874E4,1.5155168E2,1.7080086E2,1.8279732E2,2.032726E2,1.8936195E2,2.2888821E2,2.5342705E2,2.9053806E2],"split_indices":[7,7,7,8,9,0,9,0,0,0,0,0,0,0,0],"split_type":[0,0,0,0,0,0,0,0,0,0,0,0,0,0,0],"sum_hessian":[1.45366E5,6.0863E4,8.4503E4,2.0825E4,4.0038E4,5.6738E4,2.7765E4,8.223E3,1.2602E4,1.7011E4,2.3027E4,8.594E3,4.8144E4,1.9065E4,8.7E3],"tree_param":{"num_deleted":"0","num_feature":"10","num_nodes":"15","size_leaf_vector":"1"}},{"base_weights":[2.1246172E4,1.9383367E4,2.4834766E4,1.739898E4,2.0982314E4,2.3846463E4,2.8120424E4,1.630404E2,1.8827734E2,1.8832877E2,2.1575238E2,2.2459648E2,2.5040897E2,2.49726E2,2.8967297E2],"categories":[],"categories_nodes":[],"categories_segments":[],"categories_sizes":[],"default_left":[1,0,1,1,0,0,0,0,0,0,0,0,0,0,0],"id":41,"left_children":[1,3,5,7,9,11,13,-1,-1,-1,-1,-1,-1,-1,-1],"loss_changes":[9.71275E11,3.0327754E11,1.6062087E11,6.6505933E10,6.712774E10,6.2698553E10,2.9880222E10,0E0,0E0,0E0,0E0,0E0,0E0,0E0,0E0],"parents":[2147483647,0,0,1,1,2,2,3,3,4,4,5,5,6,6],"right_children":[2,4,6,8,10,12,14,-1,-1,-1,-1,-1,-1,-1,-1],"split_conditions":[3.349E4,2.8744E4,4.081E4,2.6413E4,7E0,3.5707E4,1.72E2,1.630404E2,1.8827734E2,1.8832877E2,2.1575238E2,2.2459648E2,2.5040897E2,2.49726E2,2.8967297E2],"split_indices":[7,7,8,8,0,9,5,0,0,0,0,0,0,0,0],"split_type":[0,0,0,0,0,0,0,0,0,0,0,0,0,0,0],"sum_hessian":[1.45366E5,9.5697E4,4.9669E4,4.2707E4,5.299E4,3.819E4,1.1479E4,2.4185E4,1.8522E4,1.1464E4,4.1526E4,1.7681E4,2.0509E4,2.44E3,9.039E3],"tree_param":{"num_deleted":"0","num_feature":"10","num_nodes":"15","size_leaf_vector":"1"}},{"base_weights":[2.1033723E4,1.860357E4,2.3731838E4,1.6248664E4,1.9716215E4,2.2449643E4,2.6483715E4,1.4874942E2,1.6981119E2,1.8275761E2,2.0507054E2,2.1098921E2,2.3538599E2,2.518743E2,2.8567813E2],"categories":[],"categories_nodes":[],"categories_segments":[],"categories_sizes":[],"default_left":[1,0,0,0,0,0,1,0,0,0,0,0,0,0,0],"id":42,"left_children":[1,3,5,7,9,11,13,-1,-1,-1,-1,-1,-1,-1,-1],"loss_changes":[9.527068E11,2.0008718E11,2.4245174E11,2.4447025E10,5.879156E10,6.8625105E10,5.8413023E10,0E0,0E0,0E0,0E0,0E0,0E0,0E0,0E0],"parents":[2147483647,0,0,1,1,2,2,3,3,4,4,5,5,6,6],"right_children":[2,4,6,8,10,12,14,-1,-1,-1,-1,-1,-1,-1,-1],"split_conditions":[3.1432E4,2.6189E4,3.8171E4,2.3063E4,2.9781E4,3.3518E4,4.0282E4,1.4874942E2,1.6981119E2,1.8275761E2,2.0507054E2,2.1098921E2,2.3538599E2,2.518743E2,2.8567813E2],"split_indices":[7,7,7,7,9,8,9,0,0,0,0,0,0,0,0],"split_type":[0,0,0,0,0,0,0,0,0,0,0,0,0,0,0],"sum_hessian":[1.45366E5,7.6485E4,6.8881E4,2.4547E4,5.1938E4,4.6994E4,2.1887E4,8.544E3,1.6003E4,1.8417E4,3.3521E4,2.0985E4,2.6009E4,1.3502E4,8.385E3],"tree_param":{"num_deleted":"0","num_feature":"10","num_nodes":"15","size_leaf_vector":"1"}},{"base_weights":[2.0823396E4,1.7671078E4,2.2863965E4,1.5666023E4,1.8645164E4,2.1454707E4,2.5539633E4,1.435842E2,1.626371E2,1.7378029E2,1.940733E2,1.839396E2,2.2036441E2,2.4446188E2,2.8122583E2],"categories":[],"categories_nodes":[],"categories_segments":[],"categories_sizes":[],"default_left":[0,0,1,0,0,0,1,0,0,0,0,0,0,0,0],"id":43,"left_children":[1,3,5,7,9,11,13,-1,-1,-1,-1,-1,-1,-1,-1],"loss_changes":[9.346671E11,1.1128327E11,3.3218888E11,1.4369686E10,3.678929E10,1.02519276E11,8.5274395E10,0E0,0E0,0E0,0E0,0E0,0E0,0E0,0E0],"parents":[2147483647,0,0,1,1,2,2,3,3,4,4,5,5,6,6],"right_children":[2,4,6,8,10,12,14,-1,-1,-1,-1,-1,-1,-1,-1],"split_conditions":[3.0375E4,2.5163E4,3.6373E4,2.2855E4,2.8268E4,7E0,4.0874E4,1.435842E2,1.626371E2,1.7378029E2,1.940733E2,1.839396E2,2.2036441E2,2.4446188E2,2.8122583E2],"split_indices":[7,7,7,8,9,0,9,0,0,0,0,0,0,0,0],"split_type":[0,0,0,0,0,0,0,0,0,0,0,0,0,0,0],"sum_hessian":[1.45366E5,5.7126E4,8.824E4,1.8684E4,3.8442E4,5.7804E4,3.0436E4,5.869E3,1.2815E4,1.4447E4,2.3995E4,9.237E3,4.8567E4,2.1391E4,9.045E3],"tree_param":{"num_deleted":"0","num_feature":"10","num_nodes":"15","size_leaf_vector":"1"}},{"base_weights":[2.0615174E4,1.8892963E4,2.4282164E4,1.68779E4,2.042366E4,2.3350004E4,2.7539398E4,1.5184444E2,1.7768103E2,1.8516487E2,2.1076158E2,2.2793375E2,2.611685E2,2.373137E2,2.8195227E2],"categories":[],"categories_nodes":[],"categories_segments":[],"categories_sizes":[],"default_left":[1,0,1,0,0,0,0,0,0,0,0,0,0,0,0],"id":44,"left_children":[1,3,5,7,9,11,13,-1,-1,-1,-1,-1,-1,-1,-1],"loss_changes":[9.175837E11,3.0475813E11,1.4039594E11,6.4113082E10,6.955624E10,5.503556E10,2.5129124E10,0E0,0E0,0E0,0E0,0E0,0E0,0E0,0E0],"parents":[2147483647,0,0,1,1,2,2,3,3,4,4,5,5,6,6],"right_children":[2,4,6,8,10,12,14,-1,-1,-1,-1,-1,-1,-1,-1],"split_conditions":[3.3912E4,2.8744E4,4.0874E4,2.5331E4,8E0,4.1688E4,1.58E2,1.5184444E2,1.7768103E2,1.8516487E2,2.1076158E2,2.2793375E2,2.611685E2,2.373137E2,2.8195227E2],"split_indices":[7,7,9,9,0,7,5,0,0,0,0,0,0,0,0],"split_type":[0,0,0,0,0,0,0,0,0,0,0,0,0,0,0],"sum_hessian":[1.45366E5,9.8916E4,4.645E4,4.2707E4,5.6209E4,3.6121E4,1.0329E4,1.4721E4,2.7986E4,1.4336E4,4.1873E4,3.0079E4,6.042E3,1.523E3,8.806E3],"tree_param":{"num_deleted":"0","num_feature":"10","num_nodes":"15","size_leaf_vector":"1"}},{"base_weights":[2.0409035E4,1.7477336E4,2.252035E4,1.5505676E4,1.8502443E4,2.1234941E4,2.5301475E4,1.4279903E2,1.6189894E2,1.7150037E2,1.9197694E2,1.7970271E2,2.1808986E2,2.4392271E2,2.8262213E2],"categories":[],"categories_nodes":[],"categories_segments":[],"categories_sizes":[],"default_left":[0,0,1,0,0,0,1,0,0,0,0,0,0,0,0],"id":45,"left_children":[1,3,5,7,9,11,13,-1,-1,-1,-1,-1,-1,-1,-1],"loss_changes":[8.99393E11,1.2272953E11,3.0155368E11,1.7235444E10,3.731882E10,1.0792573E11,7.120041E10,0E0,0E0,0E0,0E0,0E0,0E0,0E0,0E0],"parents":[2147483647,0,0,1,1,2,2,3,3,4,4,5,5,6,6],"right_children":[2,4,6,8,10,12,14,-1,-1,-1,-1,-1,-1,-1,-1],"split_conditions":[3.0762E4,2.5563E4,3.71E4,2.2801E4,2.8268E4,7E0,4.2866E4,1.4279903E2,1.6189894E2,1.7150037E2,1.9197694E2,1.7970271E2,2.1808986E2,2.4392271E2,2.8262213E2],"split_indices":[7,7,7,7,9,0,9,0,0,0,0,0,0,0,0],"split_type":[0,0,0,0,0,0,0,0,0,0,0,0,0,0,0],"sum_hessian":[1.45366E5,6.0863E4,8.4503E4,2.0825E4,4.0038E4,5.7798E4,2.6705E4,7.468E3,1.3357E4,1.3603E4,2.6435E4,8.648E3,4.915E4,2.0438E4,6.267E3],"tree_param":{"num_deleted":"0","num_feature":"10","num_nodes":"15","size_leaf_vector":"1"}},{"base_weights":[2.0204955E4,1.8515307E4,2.3802613E4,1.654002E4,2.0015785E4,2.2826588E4,2.6842768E4,1.5481305E2,1.792152E2,1.8145923E2,2.0655519E2,2.1459602E2,2.3935976E2,2.3731871E2,2.765981E2],"categories":[],"categories_nodes":[],"categories_segments":[],"categories_sizes":[],"default_left":[1,0,1,1,0,0,0,0,0,0,0,0,0,0,0],"id":46,"left_children":[1,3,5,7,9,11,13,-1,-1,-1,-1,-1,-1,-1,-1],"loss_changes":[8.832114E11,2.928484E11,1.3722085E11,6.2187897E10,6.6863497E10,5.2820967E10,2.802162E10,0E0,0E0,0E0,0E0,0E0,0E0,0E0,0E0],"parents":[2147483647,0,0,1,1,2,2,3,3,4,4,5,5,6,6],"right_children":[2,4,6,8,10,12,14,-1,-1,-1,-1,-1,-1,-1,-1],"split_conditions":[3.3912E4,2.8744E4,4.081E4,2.6413E4,8E0,3.5707E4,1.72E2,1.5481305E2,1.792152E2,1.8145923E2,2.0655519E2,2.1459602E2,2.3935976E2,2.3731871E2,2.765981E2],"split_indices":[7,7,8,8,0,9,5,0,0,0,0,0,0,0,0],"split_type":[0,0,0,0,0,0,0,0,0,0,0,0,0,0,0],"sum_hessian":[1.45366E5,9.8916E4,4.645E4,4.2707E4,5.6209E4,3.5168E4,1.1282E4,2.4185E4,1.8522E4,1.4336E4,4.1873E4,1.5764E4,1.9404E4,2.353E3,8.929E3],"tree_param":{"num_deleted":"0","num_feature":"10","num_nodes":"15","size_leaf_vector":"1"}},{"base_weights":[2.0002918E4,1.7976496E4,2.2944816E4,1.5739383E4,1.9134256E4,2.1931879E4,2.6054115E4,1.4823828E2,1.695551E2,1.7748203E2,1.9882599E2,2.0092029E2,2.2770781E2,2.332796E2,2.700352E2],"categories":[],"categories_nodes":[],"categories_segments":[],"categories_sizes":[],"default_left":[1,0,1,1,0,0,0,0,0,0,0,0,0,0,0],"id":47,"left_children":[1,3,5,7,9,11,13,-1,-1,-1,-1,-1,-1,-1,-1],"loss_changes":[8.661993E11,2.2265043E11,1.861537E11,3.2441369E10,5.8479084E10,6.8574773E10,3.706192E10,0E0,0E0,0E0,0E0,0E0,0E0,0E0,0E0],"parents":[2147483647,0,0,1,1,2,2,3,3,4,4,5,5,6,6],"right_children":[2,4,6,8,10,12,14,-1,-1,-1,-1,-1,-1,-1,-1],"split_conditions":[3.2381E4,2.6919E4,3.967E4,2.5222E4,3.0426E4,3.3138E4,1.72E2,1.4823828E2,1.695551E2,1.7748203E2,1.9882599E2,2.0092029E2,2.2770781E2,2.332796E2,2.700352E2],"split_indices":[7,7,8,8,9,9,5,0,0,0,0,0,0,0,0],"split_type":[0,0,0,0,0,0,0,0,0,0,0,0,0,0,0],"sum_hessian":[1.45366E5,8.608E4,5.9286E4,2.9361E4,5.6719E4,4.4724E4,1.4562E4,1.6758E4,1.2603E4,1.9895E4,3.6824E4,1.4014E4,3.071E4,3.768E3,1.0794E4],"tree_param":{"num_deleted":"0","num_feature":"10","num_nodes":"15","size_leaf_vector":"1"}},{"base_weights":[1.9802898E4,1.8145496E4,2.3331896E4,1.6208563E4,1.9616844E4,2.2427592E4,2.6491818E4,1.4622862E2,1.7108453E2,1.7525958E2,2.0175171E2,2.1884663E2,2.5126389E2,2.2780734E2,2.713099E2],"categories":[],"categories_nodes":[],"categories_segments":[],"categories_sizes":[],"default_left":[1,0,1,0,0,0,0,0,0,0,0,0,0,0,0],"id":48,"left_children":[1,3,5,7,9,11,13,-1,-1,-1,-1,-1,-1,-1,-1],"loss_changes":[8.498205E11,2.815867E11,1.32143645E11,6.0692627E10,6.5265467E10,5.237847E10,2.3884988E10,0E0,0E0,0E0,0E0,0E0,0E0,0E0,0E0],"parents":[2147483647,0,0,1,1,2,2,3,3,4,4,5,5,6,6],"right_children":[2,4,6,8,10,12,14,-1,-1,-1,-1,-1,-1,-1,-1],"split_conditions":[3.3912E4,2.8744E4,4.0874E4,2.5539E4,7E0,4.1688E4,1.58E2,1.4622862E2,1.7108453E2,1.7525958E2,2.0175171E2,2.1884663E2,2.5126389E2,2.2780734E2,2.713099E2],"split_indices":[7,7,9,9,0,7,5,0,0,0,0,0,0,0,0],"split_type":[0,0,0,0,0,0,0,0,0,0,0,0,0,0,0],"sum_hessian":[1.45366E5,9.8916E4,4.645E4,4.2707E4,5.6209E4,3.6121E4,1.0329E4,1.5468E4,2.7239E4,1.1853E4,4.4356E4,3.0079E4,6.042E3,1.523E3,8.806E3],"tree_param":{"num_deleted":"0","num_feature":"10","num_nodes":"15","size_leaf_vector":"1"}},{"base_weights":[1.960488E4,1.6627729E4,2.153206E4,1.4722715E4,1.7553215E4,2.0341793E4,2.4385E4,1.3866011E2,1.5583911E2,1.6349135E2,1.8277461E2,1.7279848E2,2.0900517E2,2.3053784E2,2.6392715E2],"categories":[],"categories_nodes":[],"categories_segments":[],"categories_sizes":[],"default_left":[0,0,1,1,0,0,1,0,0,0,0,0,0,0,0],"id":49,"left_children":[1,3,5,7,9,11,13,-1,-1,-1,-1,-1,-1,-1,-1],"loss_changes":[8.33685E11,1.0046092E11,2.9915034E11,1.3569622E10,3.3226228E10,1.0617042E11,6.880651E10,0E0,0E0,0E0,0E0,0E0,0E0,0E0,0E0],"parents":[2147483647,0,0,1,1,2,2,3,3,4,4,5,5,6,6],"right_children":[2,4,6,8,10,12,14,-1,-1,-1,-1,-1,-1,-1,-1],"split_conditions":[3.0375E4,2.5163E4,3.6744E4,2.3579E4,2.8268E4,7E0,3.9928E4,1.3866011E2,1.5583911E2,1.6349135E2,1.8277461E2,1.7279848E2,2.0900517E2,2.3053784E2,2.6392715E2],"split_indices":[7,7,8,8,9,0,9,0,0,0,0,0,0,0,0],"split_type":[0,0,0,0,0,0,0,0,0,0,0,0,0,0,0],"sum_hessian":[1.45366E5,5.7126E4,8.824E4,1.8684E4,3.8442E4,6.2269E4,2.5971E4,9.375E3,9.309E3,1.4447E4,2.3995E4,9.614E3,5.2655E4,1.5624E4,1.0347E4],"tree_param":{"num_deleted":"0","num_feature":"10","num_nodes":"15","size_leaf_vector":"1"}},{"base_weights":[1.9408844E4,1.7781408E4,2.2874035E4,1.5884449E4,1.9222389E4,2.2000682E4,2.6052457E4,1.4264537E2,1.6736003E2,1.7412929E2,1.9841461E2,2.0607854E2,2.309394E2,2.2937753E2,2.6780078E2],"categories":[],"categories_nodes":[],"categories_segments":[],"categories_sizes":[],"default_left":[1,0,1,0,0,0,0,0,0,0,0,0,0,0,0],"id":50,"left_children":[1,3,5,7,9,11,13,-1,-1,-1,-1,-1,-1,-1,-1],"loss_changes":[8.1937406E11,2.7008382E11,1.2836877E11,5.8675167E10,6.262096E10,5.502088E10,2.206466E10,0E0,0E0,0E0,0E0,0E0,0E0,0E0,0E0],"parents":[2147483647,0,0,1,1,2,2,3,3,4,4,5,5,6,6],"right_children":[2,4,6,8,10,12,14,-1,-1,-1,-1,-1,-1,-1,-1],"split_conditions":[3.3912E4,2.8744E4,4.1459E4,2.5331E4,8E0,3.5707E4,1.72E2,1.4264537E2,1.6736003E2,1.7412929E2,1.9841461E2,2.0607854E2,2.309394E2,2.2937753E2,2.6780078E2],"split_indices":[7,7,8,9,0,9,5,0,0,0,0,0,0,0,0],"split_type":[0,0,0,0,0,0,0,0,0,0,0,0,0,0,0],"sum_hessian":[1.45366E5,9.8916E4,4.645E4,4.2707E4,5.6209E4,3.6444E4,1.0006E4,1.4721E4,2.7986E4,1.4336E4,4.1873E4,1.6035E4,2.0409E4,1.901E3,8.105E3],"tree_param":{"num_deleted":"0","num_feature":"10","num_nodes":"15","size_leaf_vector":"1"}},{"base_weights":[1.9214766E4,1.7032463E4,2.1747984E4,1.4991351E4,1.8141096E4,2.0578867E4,2.4371049E4,1.3710199E2,1.5840152E2,1.659397E2,1.8866344E2,1.917865E2,2.1546924E2,2.332228E2,2.6806696E2],"categories":[],"categories_nodes":[],"categories_segments":[],"categories_sizes":[],"default_left":[1,0,1,0,0,0,1,0,0,0,0,0,0,0,0],"id":51,"left_children":[1,3,5,7,9,11,13,-1,-1,-1,-1,-1,-1,-1,-1],"loss_changes":[8.0325535E11,1.7645017E11,2.0579562E11,2.9680992E10,5.6466866E10,6.2667096E10,5.2338622E10,0E0,0E0,0E0,0E0,0E0,0E0,0E0,0E0],"parents":[2147483647,0,0,1,1,2,2,3,3,4,4,5,5,6,6],"right_children":[2,4,6,8,10,12,14,-1,-1,-1,-1,-1,-1,-1,-1],"split_conditions":[3.1586E4,2.7223E4,3.7855E4,2.4479E4,7E0,3.3509E4,4.2565E4,1.3710199E2,1.5840152E2,1.659397E2,1.8866344E2,1.917865E2,2.1546924E2,2.332228E2,2.6806696E2],"split_indices":[7,8,8,9,0,9,9,0,0,0,0,0,0,0,0],"split_type":[0,0,0,0,0,0,0,0,0,0,0,0,0,0,0],"sum_hessian":[1.45366E5,7.8096E4,6.727E4,2.7493E4,5.0603E4,4.6537E4,2.0733E4,1.0963E4,1.653E4,1.6158E4,3.4445E4,1.9031E4,2.7506E4,1.45E4,6.233E3],"tree_param":{"num_deleted":"0","num_feature":"10","num_nodes":"15","size_leaf_vector":"1"}},{"base_weights":[1.9022629E4,1.7425797E4,2.242266E4,1.5564569E4,1.8839637E4,2.1581107E4,2.5646602E4,1.4550488E2,1.6887843E2,1.7063347E2,1.9447359E2,2.0797673E2,2.3409978E2,2.1881085E2,2.630058E2],"categories":[],"categories_nodes":[],"categories_segments":[],"categories_sizes":[],"default_left":[1,0,0,1,0,1,0,0,0,0,0,0,0,0,0],"id":52,"left_children":[1,3,5,7,9,11,13,-1,-1,-1,-1,-1,-1,-1,-1],"loss_changes":[7.888479E11,2.600049E11,1.25472604E11,5.7064554E10,6.034555E10,5.2299825E10,2.3089644E10,0E0,0E0,0E0,0E0,0E0,0E0,0E0,0E0],"parents":[2147483647,0,0,1,1,2,2,3,3,4,4,5,5,6,6],"right_children":[2,4,6,8,10,12,14,-1,-1,-1,-1,-1,-1,-1,-1],"split_conditions":[3.3912E4,2.8744E4,4.2506E4,2.6413E4,8E0,3.7814E4,1.65E2,1.4550488E2,1.6887843E2,1.7063347E2,1.9447359E2,2.0797673E2,2.3409978E2,2.1881085E2,2.630058E2],"split_indices":[7,7,7,8,0,9,5,0,0,0,0,0,0,0,0],"split_type":[0,0,0,0,0,0,0,0,0,0,0,0,0,0,0],"sum_hessian":[1.45366E5,9.8916E4,4.645E4,4.2707E4,5.6209E4,3.6841E4,9.609E3,2.4185E4,1.8522E4,1.4336E4,4.1873E4,2.5801E4,1.104E4,1.427E3,8.182E3],"tree_param":{"num_deleted":"0","num_feature":"10","num_nodes":"15","size_leaf_vector":"1"}},{"base_weights":[1.8832414E4,1.712266E4,2.1950068E4,1.5402083E4,1.8670451E4,2.0918094E4,2.4670191E4,1.3863634E2,1.6213376E2,1.6718864E2,1.9353654E2,1.9988176E2,2.2231058E2,2.1484451E2,2.54155E2],"categories":[],"categories_nodes":[],"categories_segments":[],"categories_sizes":[],"default_left":[1,0,1,0,0,1,0,0,0,0,0,0,0,0,0],"id":53,"left_children":[1,3,5,7,9,11,13,-1,-1,-1,-1,-1,-1,-1,-1],"loss_changes":[7.74495E11,2.4973935E11,1.4399675E11,5.5276732E10,6.5570603E10,4.513281E10,3.3061077E10,0E0,0E0,0E0,0E0,0E0,0E0,0E0,0E0],"parents":[2147483647,0,0,1,1,2,2,3,3,4,4,5,5,6,6],"right_children":[2,4,6,8,10,12,14,-1,-1,-1,-1,-1,-1,-1,-1],"split_conditions":[3.2949E4,2.9248E4,3.9406E4,2.4533E4,8E0,3.5982E4,1.5E2,1.3863634E2,1.6213376E2,1.6718864E2,1.9353654E2,1.9988176E2,2.2231058E2,2.1484451E2,2.54155E2],"split_indices":[8,7,9,7,0,7,5,0,0,0,0,0,0,0,0],"split_type":[0,0,0,0,0,0,0,0,0,0,0,0,0,0,0],"sum_hessian":[1.45366E5,9.3885E4,5.1481E4,4.4466E4,4.9419E4,3.7328E4,1.4153E4,1.5359E4,2.9107E4,1.2821E4,3.6598E4,2.1861E4,1.5467E4,2.689E3,1.1464E4],"tree_param":{"num_deleted":"0","num_feature":"10","num_nodes":"15","size_leaf_vector":"1"}},{"base_weights":[1.86441E4,1.709003E4,2.2008992E4,1.5029313E4,1.8326754E4,2.117594E4,2.515462E4,1.3559645E2,1.591613E2,1.6299176E2,1.8951068E2,2.0784975E2,2.4753825E2,2.144494E2,2.5798914E2],"categories":[],"categories_nodes":[],"categories_segments":[],"categories_sizes":[],"default_left":[1,0,0,0,0,1,0,0,0,0,0,0,0,0,0],"id":54,"left_children":[1,3,5,7,9,11,13,-1,-1,-1,-1,-1,-1,-1,-1],"loss_changes":[7.597898E11,2.531661E11,1.198061E11,4.8401744E10,7.835589E10,5.0282365E10,2.2415933E10,0E0,0E0,0E0,0E0,0E0,0E0,0E0,0E0],"parents":[2147483647,0,0,1,1,2,2,3,3,4,4,5,5,6,6],"right_children":[2,4,6,8,10,12,14,-1,-1,-1,-1,-1,-1,-1,-1],"split_conditions":[3.3979E4,2.8641E4,4.2506E4,2.5129E4,7E0,4.2866E4,1.65E2,1.3559645E2,1.591613E2,1.6299176E2,1.8951068E2,2.0784975E2,2.4753825E2,2.144494E2,2.5798914E2],"split_indices":[7,8,7,9,0,9,5,0,0,0,0,0,0,0,0],"split_type":[0,0,0,0,0,0,0,0,0,0,0,0,0,0,0],"sum_hessian":[1.45366E5,9.9444E4,4.5922E4,3.7302E4,6.2142E4,3.6313E4,9.609E3,1.4044E4,2.3258E4,1.4636E4,4.7506E4,3.2742E4,3.571E3,1.427E3,8.182E3],"tree_param":{"num_deleted":"0","num_feature":"10","num_nodes":"15","size_leaf_vector":"1"}},{"base_weights":[1.845767E4,1.6778287E4,2.1519947E4,1.5155073E4,1.8356979E4,2.0506748E4,2.4190586E4,1.3725635E2,1.602035E2,1.6378474E2,1.9032771E2,1.9595909E2,2.179277E2,2.1715866E2,2.512206E2],"categories":[],"categories_nodes":[],"categories_segments":[],"categories_sizes":[],"default_left":[1,0,1,0,0,1,0,0,0,0,0,0,0,0,0],"id":55,"left_children":[1,3,5,7,9,11,13,-1,-1,-1,-1,-1,-1,-1,-1],"loss_changes":[7.4722784E11,2.4030845E11,1.388084E11,5.7042534E10,6.3321407E10,4.32978E10,3.2081183E10,0E0,0E0,0E0,0E0,0E0,0E0,0E0,0E0],"parents":[2147483647,0,0,1,1,2,2,3,3,4,4,5,5,6,6],"right_children":[2,4,6,8,10,12,14,-1,-1,-1,-1,-1,-1,-1,-1],"split_conditions":[3.2949E4,2.9498E4,3.9406E4,2.4963E4,8E0,3.5982E4,1.72E2,1.3725635E2,1.602035E2,1.6378474E2,1.9032771E2,1.9595909E2,2.179277E2,2.1715866E2,2.512206E2],"split_indices":[8,7,9,7,0,7,5,0,0,0,0,0,0,0,0],"split_type":[0,0,0,0,0,0,0,0,0,0,0,0,0,0,0],"sum_hessian":[1.45366E5,9.3885E4,5.1481E4,4.6295E4,4.759E4,3.7328E4,1.4153E4,1.7463E4,2.8832E4,1.2123E4,3.5467E4,2.1861E4,1.5467E4,3.877E3,1.0276E4],"tree_param":{"num_deleted":"0","num_feature":"10","num_nodes":"15","size_leaf_vector":"1"}},{"base_weights":[1.8273104E4,1.5627019E4,2.017873E4,1.37666455E4,1.6520957E4,1.9034037E4,2.278956E4,1.26702644E2,1.443172E2,1.5522134E2,1.7345857E2,1.5968086E2,1.9575998E2,2.1963235E2,2.570378E2],"categories":[],"categories_nodes":[],"categories_segments":[],"categories_sizes":[],"default_left":[0,0,1,0,0,0,0,0,0,0,0,0,0,0,0],"id":56,"left_children":[1,3,5,7,9,11,13,-1,-1,-1,-1,-1,-1,-1,-1],"loss_changes":[7.326946E11,1.0099255E11,2.5211332E11,1.4225768E10,3.3597424E10,9.731205E10,6.1447602E10,0E0,0E0,0E0,0E0,0E0,0E0,0E0,0E0],"parents":[2147483647,0,0,1,1,2,2,3,3,4,4,5,5,6,6],"right_children":[2,4,6,8,10,12,14,-1,-1,-1,-1,-1,-1,-1,-1],"split_conditions":[3.0762E4,2.5359E4,3.6744E4,2.2801E4,2.9326E4,7E0,4.3836E4,1.26702644E2,1.443172E2,1.5522134E2,1.7345857E2,1.5968086E2,1.9575998E2,2.1963235E2,2.570378E2],"split_indices":[7,7,8,7,9,0,7,0,0,0,0,0,0,0,0],"split_type":[0,0,0,0,0,0,0,0,0,0,0,0,0,0,0],"sum_hessian":[1.45366E5,6.0863E4,8.4503E4,1.9759E4,4.1104E4,5.8752E4,2.5751E4,7.468E3,1.2291E4,1.8601E4,2.2503E4,8.83E3,4.9922E4,2.0069E4,5.682E3],"tree_param":{"num_deleted":"0","num_feature":"10","num_nodes":"15","size_leaf_vector":"1"}},{"base_weights":[1.8090383E4,1.6441799E4,2.1096498E4,1.4851169E4,1.79888E4,2.0099494E4,2.3724453E4,1.3355699E2,1.5652954E2,1.604934E2,1.8651257E2,1.920582E2,2.1361287E2,2.0631305E2,2.4448119E2],"categories":[],"categories_nodes":[],"categories_segments":[],"categories_sizes":[],"default_left":[1,0,1,0,0,1,0,0,0,0,0,0,0,0,0],"id":57,"left_children":[1,3,5,7,9,11,13,-1,-1,-1,-1,-1,-1,-1,-1],"loss_changes":[7.200697E11,2.3076222E11,1.3440857E11,5.53019E10,6.084572E10,4.1682993E10,3.1177834E10,0E0,0E0,0E0,0E0,0E0,0E0,0E0,0E0],"parents":[2147483647,0,0,1,1,2,2,3,3,4,4,5,5,6,6],"right_children":[2,4,6,8,10,12,14,-1,-1,-1,-1,-1,-1,-1,-1],"split_conditions":[3.2949E4,2.9498E4,3.9406E4,2.5637E4,8E0,3.5982E4,1.5E2,1.3355699E2,1.5652954E2,1.604934E2,1.8651257E2,1.920582E2,2.1361287E2,2.0631305E2,2.4448119E2],"split_indices":[8,7,9,9,0,7,5,0,0,0,0,0,0,0,0],"split_type":[0,0,0,0,0,0,0,0,0,0,0,0,0,0,0],"sum_hessian":[1.45366E5,9.3885E4,5.1481E4,4.6295E4,4.759E4,3.7328E4,1.4153E4,1.6164E4,3.0131E4,1.2123E4,3.5467E4,2.1861E4,1.5467E4,2.689E3,1.1464E4],"tree_param":{"num_deleted":"0","num_feature":"10","num_nodes":"15","size_leaf_vector":"1"}},{"base_weights":[1.790949E4,1.6435582E4,2.1211459E4,1.4429538E4,1.7622113E4,2.0393416E4,2.4209873E4,1.2974068E2,1.5269333E2,1.5651103E2,1.8220651E2,2.0010167E2,2.381539E2,2.0590787E2,2.4838474E2],"categories":[],"categories_nodes":[],"categories_segments":[],"categories_sizes":[],"default_left":[1,0,0,0,0,1,0,0,0,0,0,0,0,0,0],"id":58,"left_children":[1,3,5,7,9,11,13,-1,-1,-1,-1,-1,-1,-1,-1],"loss_changes":[7.071219E11,2.3897886E11,1.0954054E11,4.5467304E10,7.421611E10,4.5752517E10,2.135058E10,0E0,0E0,0E0,0E0,0E0,0E0,0E0,0E0],"parents":[2147483647,0,0,1,1,2,2,3,3,4,4,5,5,6,6],"right_children":[2,4,6,8,10,12,14,-1,-1,-1,-1,-1,-1,-1,-1],"split_conditions":[3.4117E4,2.8641E4,4.2506E4,2.5028E4,7E0,4.2866E4,1.65E2,1.2974068E2,1.5269333E2,1.5651103E2,1.8220651E2,2.0010167E2,2.381539E2,2.0590787E2,2.4838474E2],"split_indices":[7,8,7,9,0,9,5,0,0,0,0,0,0,0,0],"split_type":[0,0,0,0,0,0,0,0,0,0,0,0,0,0,0],"sum_hessian":[1.45366E5,1.00508E5,4.4858E4,3.7359E4,6.3149E4,3.5249E4,9.609E3,1.3675E4,2.3684E4,1.4716E4,4.8433E4,3.1705E4,3.544E3,1.427E3,8.182E3],"tree_param":{"num_deleted":"0","num_feature":"10","num_nodes":"15","size_leaf_vector":"1"}},{"base_weights":[1.7730404E4,1.6111112E4,2.068311E4,1.4488786E4,1.757052E4,1.953424E4,2.2885137E4,1.2944942E2,1.522222E2,1.5729053E2,1.8215173E2,1.8732933E2,2.0765327E2,2.20194E2,2.5412167E2],"categories":[],"categories_nodes":[],"categories_segments":[],"categories_sizes":[],"default_left":[1,0,1,0,0,1,0,0,0,0,0,0,0,0,0],"id":59,"left_children":[1,3,5,7,9,11,13,-1,-1,-1,-1,-1,-1,-1,-1],"loss_changes":[6.947026E11,2.2203387E11,1.29794834E11,5.015339E10,5.8380517E10,3.2991347E10,3.8043386E10,0E0,0E0,0E0,0E0,0E0,0E0,0E0,0E0],"parents":[2147483647,0,0,1,1,2,2,3,3,4,4,5,5,6,6],"right_children":[2,4,6,8,10,12,14,-1,-1,-1,-1,-1,-1,-1,-1],"split_conditions":[3.2949E4,2.9248E4,3.8169E4,2.432E4,8E0,3.5982E4,4.4224E4,1.2944942E2,1.522222E2,1.5729053E2,1.8215173E2,1.8732933E2,2.0765327E2,2.20194E2,2.5412167E2],"split_indices":[8,7,9,7,0,7,7,0,0,0,0,0,0,0,0],"split_type":[0,0,0,0,0,0,0,0,0,0,0,0,0,0,0],"sum_hessian":[1.45366E5,9.3885E4,5.1481E4,4.4466E4,4.9419E4,3.3837E4,1.7644E4,1.4327E4,3.0139E4,1.2821E4,3.6598E4,2.0506E4,1.3331E4,1.3149E4,4.495E3],"tree_param":{"num_deleted":"0","num_feature":"10","num_nodes":"15","size_leaf_vector":"1"}},{"base_weights":[1.7553111E4,1.592881E4,2.043969E4,1.3976774E4,1.7037662E4,1.9513783E4,2.3140863E4,1.2675082E2,1.4830684E2,1.5318713E2,1.7636267E2,1.7304701E2,2.0077394E2,2.0107802E2,2.3885861E2],"categories":[],"categories_nodes":[],"categories_segments":[],"categories_sizes":[],"default_left":[1,0,0,0,0,0,0,0,0,0,0,0,0,0,0],"id":60,"left_children":[1,3,5,7,9,11,13,-1,-1,-1,-1,-1,-1,-1,-1],"loss_changes":[6.8125144E11,2.0112107E11,1.3045334E11,3.72774E10,6.0769174E10,4.8191504E10,2.9699867E10,0E0,0E0,0E0,0E0,0E0,0E0,0E0,0E0],"parents":[2147483647,0,0,1,1,2,2,3,3,4,4,5,5,6,6],"right_children":[2,4,6,8,10,12,14,-1,-1,-1,-1,-1,-1,-1,-1],"split_conditions":[3.3171E4,2.8143E4,4.0791E4,2.5028E4,7E0,3.2223E4,1.65E2,1.2675082E2,1.4830684E2,1.5318713E2,1.7636267E2,1.7304701E2,2.0077394E2,2.0107802E2,2.3885861E2],"split_indices":[7,8,7,9,0,9,5,0,0,0,0,0,0,0,0],"split_type":[0,0,0,0,0,0,0,0,0,0,0,0,0,0,0],"sum_hessian":[1.45366E5,9.3026E4,5.234E4,3.3705E4,5.9321E4,3.8985E4,1.3355E4,1.3358E4,2.0347E4,1.5329E4,4.3992E4,7.931E3,3.1054E4,2.639E3,1.0716E4],"tree_param":{"num_deleted":"0","num_feature":"10","num_nodes":"15","size_leaf_vector":"1"}},{"base_weights":[1.737759E4,1.5787217E4,2.0277562E4,1.4270557E4,1.7289744E4,1.9313758E4,2.2818018E4,1.2897237E2,1.5089572E2,1.5399873E2,1.7932047E2,1.8457428E2,2.0522821E2,2.0439777E2,2.371322E2],"categories":[],"categories_nodes":[],"categories_segments":[],"categories_sizes":[],"default_left":[1,0,1,0,0,1,0,0,0,0,0,0,0,0,0],"id":61,"left_children":[1,3,5,7,9,11,13,-1,-1,-1,-1,-1,-1,-1,-1],"loss_changes":[6.7011556E11,2.1370398E11,1.2561311E11,5.2365885E10,5.696599E10,3.826988E10,2.9649535E10,0E0,0E0,0E0,0E0,0E0,0E0,0E0,0E0],"parents":[2147483647,0,0,1,1,2,2,3,3,4,4,5,5,6,6],"right_children":[2,4,6,8,10,12,14,-1,-1,-1,-1,-1,-1,-1,-1],"split_conditions":[3.2949E4,2.9564E4,3.9406E4,2.4963E4,8E0,3.5982E4,1.72E2,1.2897237E2,1.5089572E2,1.5399873E2,1.7932047E2,1.8457428E2,2.0522821E2,2.0439777E2,2.371322E2],"split_indices":[8,7,9,7,0,7,5,0,0,0,0,0,0,0,0],"split_type":[0,0,0,0,0,0,0,0,0,0,0,0,0,0,0],"sum_hessian":[1.45366E5,9.3885E4,5.1481E4,4.6728E4,4.7157E4,3.7328E4,1.4153E4,1.7463E4,2.9265E4,1.1968E4,3.5189E4,2.1861E4,1.5467E4,3.877E3,1.0276E4],"tree_param":{"num_deleted":"0","num_feature":"10","num_nodes":"15","size_leaf_vector":"1"}},{"base_weights":[1.7203824E4,1.5629351E4,2.0074803E4,1.4127856E4,1.7116855E4,1.8954873E4,2.2221367E4,1.26035164E2,1.4854979E2,1.5245888E2,1.775273E2,1.8262837E2,2.0290991E2,2.1376068E2,2.4688777E2],"categories":[],"categories_nodes":[],"categories_segments":[],"categories_sizes":[],"default_left":[1,0,1,0,0,1,0,0,0,0,0,0,0,0,0],"id":62,"left_children":[1,3,5,7,9,11,13,-1,-1,-1,-1,-1,-1,-1,-1],"loss_changes":[6.5678606E11,2.0944886E11,1.233419E11,5.1606716E10,5.5833526E10,3.0917263E10,3.6274962E10,0E0,0E0,0E0,0E0,0E0,0E0,0E0,0E0],"parents":[2147483647,0,0,1,1,2,2,3,3,4,4,5,5,6,6],"right_children":[2,4,6,8,10,12,14,-1,-1,-1,-1,-1,-1,-1,-1],"split_conditions":[3.2949E4,2.9564E4,3.8169E4,2.491E4,8E0,3.6673E4,4.4224E4,1.26035164E2,1.4854979E2,1.5245888E2,1.775273E2,1.8262837E2,2.0290991E2,2.1376068E2,2.4688777E2],"split_indices":[8,7,9,8,0,7,7,0,0,0,0,0,0,0,0],"split_type":[0,0,0,0,0,0,0,0,0,0,0,0,0,0,0],"sum_hessian":[1.45366E5,9.3885E4,5.1481E4,4.6728E4,4.7157E4,3.3837E4,1.7644E4,1.5097E4,3.1631E4,1.1968E4,3.5189E4,2.2301E4,1.1536E4,1.3149E4,4.495E3],"tree_param":{"num_deleted":"0","num_feature":"10","num_nodes":"15","size_leaf_vector":"1"}},{"base_weights":[1.7031795E4,1.5623799E4,2.018611E4,1.3710682E4,1.6755365E4,1.9378812E4,2.3025682E4,1.2395173E2,1.457131E2,1.4871658E2,1.7327396E2,1.8068109E2,2.0374667E2,2.0116171E2,2.3693753E2],"categories":[],"categories_nodes":[],"categories_segments":[],"categories_sizes":[],"default_left":[1,0,1,0,0,0,0,0,0,0,0,0,0,0,0],"id":63,"left_children":[1,3,5,7,9,11,13,-1,-1,-1,-1,-1,-1,-1,-1],"loss_changes":[6.4530206E11,2.1735303E11,1.0238925E11,4.2117104E10,6.779044E10,4.5231374E10,1.88146E10,0E0,0E0,0E0,0E0,0E0,0E0,0E0,0E0],"parents":[2147483647,0,0,1,1,2,2,3,3,4,4,5,5,6,6],"right_children":[2,4,6,8,10,12,14,-1,-1,-1,-1,-1,-1,-1,-1],"split_conditions":[3.4117E4,2.8641E4,4.1459E4,2.5331E4,7E0,3.5707E4,1.72E2,1.2395173E2,1.457131E2,1.4871658E2,1.7327396E2,1.8068109E2,2.0374667E2,2.0116171E2,2.3693753E2],"split_indices":[7,8,8,9,0,9,5,0,0,0,0,0,0,0,0],"split_type":[0,0,0,0,0,0,0,0,0,0,0,0,0,0,0],"sum_hessian":[1.45366E5,1.00508E5,4.4858E4,3.7359E4,6.3149E4,3.4934E4,9.924E3,1.4781E4,2.2578E4,1.4716E4,4.8433E4,1.5091E4,1.9843E4,1.859E3,8.065E3],"tree_param":{"num_deleted":"0","num_feature":"10","num_nodes":"15","size_leaf_vector":"1"}},{"base_weights":[1.6861488E4,1.5315338E4,1.9680822E4,1.3769428E4,1.6706002E4,1.885447E4,2.2490812E4,1.2197585E2,1.443814E2,1.5153035E2,1.7402596E2,1.815135E2,2.0398253E2,2.1683894E2,2.4489978E2],"categories":[],"categories_nodes":[],"categories_segments":[],"categories_sizes":[],"default_left":[1,0,1,0,0,1,0,0,0,0,0,0,0,0,0],"id":64,"left_children":[1,3,5,7,9,11,13,-1,-1,-1,-1,-1,-1,-1,-1],"loss_changes":[6.3336926E11,2.016118E11,1.1912033E11,4.656359E10,5.3198455E10,4.2817552E10,1.8333303E10,0E0,0E0,0E0,0E0,0E0,0E0,0E0,0E0],"parents":[2147483647,0,0,1,1,2,2,3,3,4,4,5,5,6,6],"right_children":[2,4,6,8,10,12,14,-1,-1,-1,-1,-1,-1,-1,-1],"split_conditions":[3.2949E4,2.9248E4,4.0791E4,2.4101E4,9E0,3.7248E4,4.7277E4,1.2197585E2,1.443814E2,1.5153035E2,1.7402596E2,1.815135E2,2.0398253E2,2.1683894E2,2.4489978E2],"split_indices":[8,7,7,7,0,9,7,0,0,0,0,0,0,0,0],"split_type":[0,0,0,0,0,0,0,0,0,0,0,0,0,0,0],"sum_hessian":[1.45366E5,9.3885E4,5.1481E4,4.4466E4,4.9419E4,3.9788E4,1.1693E4,1.3277E4,3.1189E4,1.531E4,3.4109E4,2.7346E4,1.2442E4,8.339E3,3.354E3],"tree_param":{"num_deleted":"0","num_feature":"10","num_nodes":"15","size_leaf_vector":"1"}},{"base_weights":[1.6692883E4,1.4272763E4,1.846205E4,1.2629972E4,1.5147192E4,1.7436482E4,2.0971838E4,1.15643074E2,1.3283865E2,1.4449663E2,1.6124121E2,1.4523416E2,1.7937936E2,2.0092636E2,2.33325E2],"categories":[],"categories_nodes":[],"categories_segments":[],"categories_sizes":[],"default_left":[0,0,1,0,1,0,1,0,0,0,0,0,0,0,0],"id":65,"left_children":[1,3,5,7,9,11,13,-1,-1,-1,-1,-1,-1,-1,-1],"loss_changes":[6.221411E11,8.800069E10,2.1578226E11,1.4711521E10,2.7066892E10,8.683048E10,5.007894E10,0E0,0E0,0E0,0E0,0E0,0E0,0E0,0E0],"parents":[2147483647,0,0,1,1,2,2,3,3,4,4,5,5,6,6],"right_children":[2,4,6,8,10,12,14,-1,-1,-1,-1,-1,-1,-1,-1],"split_conditions":[3.0816E4,2.6622E4,3.7057E4,2.3579E4,2.9483E4,7E0,4.2565E4,1.15643074E2,1.3283865E2,1.4449663E2,1.6124121E2,1.4523416E2,1.7937936E2,2.0092636E2,2.33325E2],"split_indices":[7,9,8,8,8,0,9,0,0,0,0,0,0,0,0],"split_type":[0,0,0,0,0,0,0,0,0,0,0,0,0,0,0],"sum_hessian":[1.45366E5,6.1393E4,8.3973E4,2.1332E4,4.0061E4,5.9619E4,2.4354E4,8.119E3,1.3213E4,2.3382E4,1.6679E4,8.76E3,5.0859E4,1.7752E4,6.602E3],"tree_param":{"num_deleted":"0","num_feature":"10","num_nodes":"15","size_leaf_vector":"1"}},{"base_weights":[1.6525963E4,1.5154974E4,1.9597367E4,1.3338952E4,1.627963E4,1.881035E4,2.2365617E4,1.2373908E2,1.4425731E2,1.495673E2,1.6885873E2,1.7527507E2,1.9785045E2,1.9504576E2,2.3022594E2],"categories":[],"categories_nodes":[],"categories_segments":[],"categories_sizes":[],"default_left":[1,0,1,1,0,0,0,0,0,0,0,0,0,0,0],"id":66,"left_children":[1,3,5,7,9,11,13,-1,-1,-1,-1,-1,-1,-1,-1],"loss_changes":[6.118231E11,2.0506162E11,9.731205E10,4.0142635E10,4.9523196E10,4.33345E10,1.82059E10,0E0,0E0,0E0,0E0,0E0,0E0,0E0,0E0],"parents":[2147483647,0,0,1,1,2,2,3,3,4,4,5,5,6,6],"right_children":[2,4,6,8,10,12,14,-1,-1,-1,-1,-1,-1,-1,-1],"split_conditions":[3.4117E4,2.8195E4,4.1459E4,2.5721E4,9E0,3.5707E4,1.72E2,1.2373908E2,1.4425731E2,1.495673E2,1.6885873E2,1.7527507E2,1.9785045E2,1.9504576E2,2.3022594E2],"split_indices":[7,7,8,8,0,9,5,0,0,0,0,0,0,0,0],"split_type":[0,0,0,0,0,0,0,0,0,0,0,0,0,0,0],"sum_hessian":[1.45366E5,1.00508E5,4.4858E4,3.8444E4,6.2064E4,3.4934E4,9.924E3,2.0369E4,1.8075E4,1.9512E4,4.2552E4,1.5091E4,1.9843E4,1.859E3,8.065E3],"tree_param":{"num_deleted":"0","num_feature":"10","num_nodes":"15","size_leaf_vector":"1"}},{"base_weights":[1.6360713E4,1.4888876E4,1.9169336E4,1.3432989E4,1.6298902E4,1.829378E4,2.1691545E4,1.1978977E2,1.4140181E2,1.4499403E2,1.6899062E2,1.7465083E2,1.9396083E2,1.8536827E2,2.2345732E2],"categories":[],"categories_nodes":[],"categories_segments":[],"categories_sizes":[],"default_left":[1,0,1,0,0,1,0,0,0,0,0,0,0,0,0],"id":67,"left_children":[1,3,5,7,9,11,13,-1,-1,-1,-1,-1,-1,-1,-1],"loss_changes":[6.006369E11,1.9559508E11,1.0997675E11,4.809294E10,5.208172E10,3.3559675E10,2.6155155E10,0E0,0E0,0E0,0E0,0E0,0E0,0E0,0E0],"parents":[2147483647,0,0,1,1,2,2,3,3,4,4,5,5,6,6],"right_children":[2,4,6,8,10,12,14,-1,-1,-1,-1,-1,-1,-1,-1],"split_conditions":[3.3138E4,2.9564E4,3.9928E4,2.4533E4,8E0,3.5982E4,1.5E2,1.1978977E2,1.4140181E2,1.4499403E2,1.6899062E2,1.7465083E2,1.9396083E2,1.8536827E2,2.2345732E2],"split_indices":[8,7,9,7,0,7,5,0,0,0,0,0,0,0,0],"split_type":[0,0,0,0,0,0,0,0,0,0,0,0,0,0,0],"sum_hessian":[1.45366E5,9.5386E4,4.998E4,4.6935E4,4.8451E4,3.7107E4,1.2873E4,1.5364E4,3.1571E4,1.2124E4,3.6327E4,2.1192E4,1.5915E4,2.216E3,1.0657E4],"tree_param":{"num_deleted":"0","num_feature":"10","num_nodes":"15","size_leaf_vector":"1"}},{"base_weights":[1.6197115E4,1.4851646E4,1.921135E4,1.3024825E4,1.5932172E4,1.8448865E4,2.2006182E4,1.1642568E2,1.3785492E2,1.4132143E2,1.6478795E2,1.8133325E2,2.2073929E2,1.858928E2,2.259977E2],"categories":[],"categories_nodes":[],"categories_segments":[],"categories_sizes":[],"default_left":[1,0,0,0,0,1,0,0,0,0,0,0,0,0,0],"id":68,"left_children":[1,3,5,7,9,11,13,-1,-1,-1,-1,-1,-1,-1,-1],"loss_changes":[5.892578E11,1.9818925E11,9.519078E10,3.9120798E10,6.1902684E10,3.9920337E10,1.90715E10,0E0,0E0,0E0,0E0,0E0,0E0,0E0,0E0],"parents":[2147483647,0,0,1,1,2,2,3,3,4,4,5,5,6,6],"right_children":[2,4,6,8,10,12,14,-1,-1,-1,-1,-1,-1,-1,-1],"split_conditions":[3.4117E4,2.8641E4,4.2506E4,2.4912E4,7E0,4.3901E4,1.65E2,1.1642568E2,1.3785492E2,1.4132143E2,1.6478795E2,1.8133325E2,2.2073929E2,1.858928E2,2.259977E2],"split_indices":[7,8,7,9,0,9,5,0,0,0,0,0,0,0,0],"split_type":[0,0,0,0,0,0,0,0,0,0,0,0,0,0,0],"sum_hessian":[1.45366E5,1.00508E5,4.4858E4,3.7359E4,6.3149E4,3.5249E4,9.609E3,1.3267E4,2.4092E4,1.4716E4,4.8433E4,3.2432E4,2.817E3,1.427E3,8.182E3],"tree_param":{"num_deleted":"0","num_feature":"10","num_nodes":"15","size_leaf_vector":"1"}},{"base_weights":[1.6035153E4,1.4589402E4,1.8793998E4,1.3161549E4,1.5972278E4,1.801867E4,2.154376E4,1.1787558E2,1.3885693E2,1.4412047E2,1.6640486E2,1.698415E2,1.9024997E2,1.8931203E2,2.2276724E2],"categories":[],"categories_nodes":[],"categories_segments":[],"categories_sizes":[],"default_left":[1,0,0,0,0,0,0,0,0,0,0,0,0,0,0],"id":69,"left_children":[1,3,5,7,9,11,13,-1,-1,-1,-1,-1,-1,-1,-1],"loss_changes":[5.7953957E11,1.881376E11,1.0616832E11,4.6536327E10,5.0272928E10,4.027266E10,2.0619723E10,0E0,0E0,0E0,0E0,0E0,0E0,0E0,0E0],"parents":[2147483647,0,0,1,1,2,2,3,3,4,4,5,5,6,6],"right_children":[2,4,6,8,10,12,14,-1,-1,-1,-1,-1,-1,-1,-1],"split_conditions":[3.3138E4,2.9564E4,4.1459E4,2.5637E4,9E0,3.5707E4,1.72E2,1.1787558E2,1.3885693E2,1.4412047E2,1.6640486E2,1.698415E2,1.9024997E2,1.8931203E2,2.2276724E2],"split_indices":[8,7,8,9,0,9,5,0,0,0,0,0,0,0,0],"split_type":[0,0,0,0,0,0,0,0,0,0,0,0,0,0,0],"sum_hessian":[1.45366E5,9.5386E4,4.998E4,4.6935E4,4.8451E4,3.8993E4,1.0987E4,1.6205E4,3.073E4,1.4535E4,3.3916E4,1.9236E4,1.9757E4,2.413E3,8.574E3],"tree_param":{"num_deleted":"0","num_feature":"10","num_nodes":"15","size_leaf_vector":"1"}},{"base_weights":[1.5874811E4,1.4519682E4,1.8760205E4,1.2626804E4,1.5512785E4,1.7996828E4,2.1490334E4,1.140984E2,1.341521E2,1.3857843E2,1.604859E2,1.6011613E2,1.8553275E2,1.8194894E2,2.2102054E2],"categories":[],"categories_nodes":[],"categories_segments":[],"categories_sizes":[],"default_left":[1,0,0,0,0,0,0,0,0,0,0,0,0,0,0],"id":70,"left_children":[1,3,5,7,9,11,13,-1,-1,-1,-1,-1,-1,-1,-1],"loss_changes":[5.6812687E11,1.8575104E11,9.64239E10,3.2510575E10,5.730363E10,3.9810236E10,2.0048773E10,0E0,0E0,0E0,0E0,0E0,0E0,0E0,0E0],"parents":[2147483647,0,0,1,1,2,2,3,3,4,4,5,5,6,6],"right_children":[2,4,6,8,10,12,14,-1,-1,-1,-1,-1,-1,-1,-1],"split_conditions":[3.3912E4,2.8143E4,4.2219E4,2.5028E4,7E0,3.2892E4,1.65E2,1.140984E2,1.341521E2,1.3857843E2,1.604859E2,1.6011613E2,1.8553275E2,1.8194894E2,2.2102054E2],"split_indices":[7,8,7,9,0,9,5,0,0,0,0,0,0,0,0],"split_type":[0,0,0,0,0,0,0,0,0,0,0,0,0,0,0],"sum_hessian":[1.45366E5,9.8916E4,4.645E4,3.4043E4,6.4873E4,3.6306E4,1.0144E4,1.339E4,2.0653E4,1.5873E4,4.9E4,7.955E3,2.8351E4,1.593E3,8.551E3],"tree_param":{"num_deleted":"0","num_feature":"10","num_nodes":"15","size_leaf_vector":"1"}},{"base_weights":[1.5716071E4,1.4263349E4,1.8365049E4,1.2888554E4,1.5625334E4,1.7322518E4,2.0363283E4,1.1326583E2,1.3508156E2,1.410095E2,1.6289525E2,1.6686873E2,1.8549767E2,1.9571318E2,2.2675108E2],"categories":[],"categories_nodes":[],"categories_segments":[],"categories_sizes":[],"default_left":[1,0,1,0,0,1,0,0,0,0,0,0,0,0,0],"id":71,"left_children":[1,3,5,7,9,11,13,-1,-1,-1,-1,-1,-1,-1,-1],"loss_changes":[5.5914686E11,1.7559663E11,1.0689603E11,4.5071466E10,4.751727E10,2.6087522E10,3.186203E10,0E0,0E0,0E0,0E0,0E0,0E0,0E0,0E0],"parents":[2147483647,0,0,1,1,2,2,3,3,4,4,5,5,6,6],"right_children":[2,4,6,8,10,12,14,-1,-1,-1,-1,-1,-1,-1,-1],"split_conditions":[3.2949E4,2.9564E4,3.8169E4,2.4101E4,9E0,3.6673E4,4.4224E4,1.1326583E2,1.3508156E2,1.410095E2,1.6289525E2,1.6686873E2,1.8549767E2,1.9571318E2,2.2675108E2],"split_indices":[8,7,9,7,0,7,7,0,0,0,0,0,0,0,0],"split_type":[0,0,0,0,0,0,0,0,0,0,0,0,0,0,0],"sum_hessian":[1.45366E5,9.3885E4,5.1481E4,4.6728E4,4.7157E4,3.3837E4,1.7644E4,1.3277E4,3.3451E4,1.4318E4,3.2839E4,2.2301E4,1.1536E4,1.3149E4,4.495E3],"tree_param":{"num_deleted":"0","num_feature":"10","num_nodes":"15","size_leaf_vector":"1"}},{"base_weights":[1.555892E4,1.4055161E4,1.8067623E4,1.2673371E4,1.5356037E4,1.7024324E4,2.0065303E4,1.1122271E2,1.326699E2,1.3930957E2,1.6019217E2,1.629345E2,1.8111777E2,1.9294879E2,2.2410464E2],"categories":[],"categories_nodes":[],"categories_segments":[],"categories_sizes":[],"default_left":[1,0,1,0,0,1,0,0,0,0,0,0,0,0,0],"id":72,"left_children":[1,3,5,7,9,11,13,-1,-1,-1,-1,-1,-1,-1,-1],"loss_changes":[5.48141E11,1.6318779E11,1.1319588E11,4.044043E10,4.401817E10,2.8152168E10,3.3325318E10,0E0,0E0,0E0,0E0,0E0,0E0,0E0,0E0],"parents":[2147483647,0,0,1,1,2,2,3,3,4,4,5,5,6,6],"right_children":[2,4,6,8,10,12,14,-1,-1,-1,-1,-1,-1,-1,-1],"split_conditions":[3.2594E4,2.9248E4,3.7927E4,2.3879E4,9E0,3.5617E4,4.4224E4,1.1122271E2,1.326699E2,1.3930957E2,1.6019217E2,1.629345E2,1.8111777E2,1.9294879E2,2.2410464E2],"split_indices":[8,7,9,7,0,7,7,0,0,0,0,0,0,0,0],"split_type":[0,0,0,0,0,0,0,0,0,0,0,0,0,0,0],"sum_hessian":[1.45366E5,9.0891E4,5.4475E4,4.408E4,4.6811E4,3.5792E4,1.8683E4,1.2206E4,3.1874E4,1.4873E4,3.1938E4,2.1415E4,1.4377E4,1.407E4,4.613E3],"tree_param":{"num_deleted":"0","num_feature":"10","num_nodes":"15","size_leaf_vector":"1"}},{"base_weights":[1.540334E4,1.3794772E4,1.7704916E4,1.1907619E4,1.4650333E4,1.6924496E4,2.0417361E4,1.0647611E2,1.2500043E2,1.3569087E2,1.5349748E2,1.5231877E2,1.7574152E2,1.7610194E2,2.1106964E2],"categories":[],"categories_nodes":[],"categories_segments":[],"categories_sizes":[],"default_left":[1,0,0,0,0,0,0,0,0,0,0,0,0,0,0],"id":73,"left_children":[1,3,5,7,9,11,13,-1,-1,-1,-1,-1,-1,-1,-1],"loss_changes":[5.3793627E11,1.3798421E11,1.26238065E11,1.9795542E10,4.431387E10,5.080246E10,2.5483543E10,0E0,0E0,0E0,0E0,0E0,0E0,0E0,0E0],"parents":[2147483647,0,0,1,1,2,2,3,3,4,4,5,5,6,6],"right_children":[2,4,6,8,10,12,14,-1,-1,-1,-1,-1,-1,-1,-1],"split_conditions":[3.2326E4,2.6522E4,4.0791E4,2.3063E4,3.0701E4,3.2775E4,1.65E2,1.0647611E2,1.2500043E2,1.3569087E2,1.5349748E2,1.5231877E2,1.7574152E2,1.7610194E2,2.1106964E2],"split_indices":[7,7,7,7,9,9,5,0,0,0,0,0,0,0,0],"split_type":[0,0,0,0,0,0,0,0,0,0,0,0,0,0,0],"sum_hessian":[1.45366E5,8.5569E4,5.9797E4,2.6697E4,5.8872E4,4.6442E4,1.3355E4,8.544E3,1.8153E4,2.3132E4,3.574E4,1.2888E4,3.3554E4,2.639E3,1.0716E4],"tree_param":{"num_deleted":"0","num_feature":"10","num_nodes":"15","size_leaf_vector":"1"}},{"base_weights":[1.5249314E4,1.3867934E4,1.7885328E4,1.2521438E4,1.5196525E4,1.7135592E4,2.0544348E4,1.1110829E2,1.3182492E2,1.3476942E2,1.5766992E2,1.6145312E2,1.8098892E2,1.8017668E2,2.1253253E2],"categories":[],"categories_nodes":[],"categories_segments":[],"categories_sizes":[],"default_left":[1,0,0,0,0,0,0,0,0,0,0,0,0,0,0],"id":74,"left_children":[1,3,5,7,9,11,13,-1,-1,-1,-1,-1,-1,-1,-1],"loss_changes":[5.2908E11,1.7045232E11,9.928861E10,4.4034425E10,4.6881833E10,3.690568E10,1.9298517E10,0E0,0E0,0E0,0E0,0E0,0E0,0E0,0E0],"parents":[2147483647,0,0,1,1,2,2,3,3,4,4,5,5,6,6],"right_children":[2,4,6,8,10,12,14,-1,-1,-1,-1,-1,-1,-1,-1],"split_conditions":[3.3138E4,2.9623E4,4.1459E4,2.491E4,8E0,3.5707E4,1.72E2,1.1110829E2,1.3182492E2,1.3476942E2,1.5766992E2,1.6145312E2,1.8098892E2,1.8017668E2,2.1253253E2],"split_indices":[8,7,8,8,0,9,5,0,0,0,0,0,0,0,0],"split_type":[0,0,0,0,0,0,0,0,0,0,0,0,0,0,0],"sum_hessian":[1.45366E5,9.5386E4,4.998E4,4.7379E4,4.8007E4,3.8993E4,1.0987E4,1.5124E4,3.2255E4,1.1965E4,3.6042E4,1.9236E4,1.9757E4,2.413E3,8.574E3],"tree_param":{"num_deleted":"0","num_feature":"10","num_nodes":"15","size_leaf_vector":"1"}},{"base_weights":[1.509683E4,1.3833698E4,1.7926611E4,1.199635E4,1.4777428E4,1.7256262E4,2.07734E4,1.0816556E2,1.2759117E2,1.3165236E2,1.528912E2,1.6936594E2,2.0747177E2,1.7352019E2,2.130258E2],"categories":[],"categories_nodes":[],"categories_segments":[],"categories_sizes":[],"default_left":[1,0,0,0,0,1,0,0,0,0,0,0,0,0,0],"id":75,"left_children":[1,3,5,7,9,11,13,-1,-1,-1,-1,-1,-1,-1,-1],"loss_changes":[5.193471E11,1.7410346E11,8.524818E10,3.0559699E10,5.4574186E10,4.0173044E10,1.5101329E10,0E0,0E0,0E0,0E0,0E0,0E0,0E0,0E0],"parents":[2147483647,0,0,1,1,2,2,3,3,4,4,5,5,6,6],"right_children":[2,4,6,8,10,12,14,-1,-1,-1,-1,-1,-1,-1,-1],"split_conditions":[3.4117E4,2.8143E4,4.3151E4,2.5028E4,7E0,4.3901E4,1.65E2,1.0816556E2,1.2759117E2,1.3165236E2,1.528912E2,1.6936594E2,2.0747177E2,1.7352019E2,2.130258E2],"split_indices":[7,8,7,9,0,9,5,0,0,0,0,0,0,0,0],"split_type":[0,0,0,0,0,0,0,0,0,0,0,0,0,0,0],"sum_hessian":[1.45366E5,1.00508E5,4.4858E4,3.4111E4,6.6397E4,3.6314E4,8.544E3,1.34E4,2.0711E4,1.6003E4,5.0394E4,3.3273E4,3.041E3,1.149E3,7.395E3],"tree_param":{"num_deleted":"0","num_feature":"10","num_nodes":"15","size_leaf_vector":"1"}},{"base_weights":[1.4945871E4,1.3588864E4,1.7535373E4,1.2268151E4,1.4892019E4,1.6798383E4,2.0149195E4,1.102783E2,1.2992368E2,1.320387E2,1.5452057E2,1.5824304E2,1.7745923E2,1.7666412E2,2.0845789E2],"categories":[],"categories_nodes":[],"categories_segments":[],"categories_sizes":[],"default_left":[1,0,0,0,0,0,0,0,0,0,0,0,0,0,0],"id":76,"left_children":[1,3,5,7,9,11,13,-1,-1,-1,-1,-1,-1,-1,-1],"loss_changes":[5.1057682E11,1.639868E11,9.594261E10,4.2416996E10,4.5185237E10,3.5711353E10,1.8635817E10,0E0,0E0,0E0,0E0,0E0,0E0,0E0,0E0],"parents":[2147483647,0,0,1,1,2,2,3,3,4,4,5,5,6,6],"right_children":[2,4,6,8,10,12,14,-1,-1,-1,-1,-1,-1,-1,-1],"split_conditions":[3.3138E4,2.9623E4,4.1459E4,2.4963E4,8E0,3.5707E4,1.72E2,1.102783E2,1.2992368E2,1.320387E2,1.5452057E2,1.5824304E2,1.7745923E2,1.7666412E2,2.0845789E2],"split_indices":[8,7,8,7,0,9,5,0,0,0,0,0,0,0,0],"split_type":[0,0,0,0,0,0,0,0,0,0,0,0,0,0,0],"sum_hessian":[1.45366E5,9.5386E4,4.998E4,4.7379E4,4.8007E4,3.8993E4,1.0987E4,1.7472E4,2.9907E4,1.1965E4,3.6042E4,1.9236E4,1.9757E4,2.413E3,8.574E3],"tree_param":{"num_deleted":"0","num_feature":"10","num_nodes":"15","size_leaf_vector":"1"}},{"base_weights":[1.4796421E4,1.3609334E4,1.7700031E4,1.19588125E4,1.4644643E4,1.7019295E4,2.0377643E4,1.08744804E2,1.2819585E2,1.2858258E2,1.5155315E2,1.6692769E2,2.0360542E2,1.7010368E2,2.0898462E2],"categories":[],"categories_nodes":[],"categories_segments":[],"categories_sizes":[],"default_left":[1,0,0,0,0,1,0,0,0,0,0,0,0,0,0],"id":77,"left_children":[1,3,5,7,9,11,13,-1,-1,-1,-1,-1,-1,-1,-1],"loss_changes":[5.0081667E11,1.7615028E11,7.653871E10,3.699009E10,5.764861E10,3.6359373E10,1.4629994E10,0E0,0E0,0E0,0E0,0E0,0E0,0E0,0E0],"parents":[2147483647,0,0,1,1,2,2,3,3,4,4,5,5,6,6],"right_children":[2,4,6,8,10,12,14,-1,-1,-1,-1,-1,-1,-1,-1],"split_conditions":[3.4485E4,2.8976E4,4.3151E4,2.6017E4,7E0,4.3901E4,1.65E2,1.08744804E2,1.2819585E2,1.2858258E2,1.5155315E2,1.6692769E2,2.0360542E2,1.7010368E2,2.0898462E2],"split_indices":[7,8,7,9,0,9,5,0,0,0,0,0,0,0,0],"split_type":[0,0,0,0,0,0,0,0,0,0,0,0,0,0,0],"sum_hessian":[1.45366E5,1.03186E5,4.218E4,3.978E4,6.3406E4,3.3636E4,8.544E3,1.761E4,2.217E4,1.4102E4,4.9304E4,3.0647E4,2.989E3,1.149E3,7.395E3],"tree_param":{"num_deleted":"0","num_feature":"10","num_nodes":"15","size_leaf_vector":"1"}},{"base_weights":[1.4648466E4,1.3222887E4,1.7026744E4,1.1920654E4,1.4448864E4,1.6031004E4,1.8933375E4,1.1202212E2,1.3092831E2,1.3091156E2,1.5080698E2,1.5381862E2,1.7125581E2,1.8098581E2,2.0907158E2],"categories":[],"categories_nodes":[],"categories_segments":[],"categories_sizes":[],"default_left":[1,0,1,1,0,1,0,0,0,0,0,0,0,0,0],"id":78,"left_children":[1,3,5,7,9,11,13,-1,-1,-1,-1,-1,-1,-1,-1],"loss_changes":[4.926315E11,1.4493732E11,1.0311906E11,3.6975935E10,3.9960183E10,2.516897E10,3.0407655E10,0E0,0E0,0E0,0E0,0E0,0E0,0E0,0E0],"parents":[2147483647,0,0,1,1,2,2,3,3,4,4,5,5,6,6],"right_children":[2,4,6,8,10,12,14,-1,-1,-1,-1,-1,-1,-1,-1],"split_conditions":[3.2594E4,2.9248E4,3.7927E4,2.6951E4,9E0,3.5982E4,4.3157E4,1.1202212E2,1.3092831E2,1.3091156E2,1.5080698E2,1.5381862E2,1.7125581E2,1.8098581E2,2.0907158E2],"split_indices":[8,7,9,9,0,7,8,0,0,0,0,0,0,0,0],"split_type":[0,0,0,0,0,0,0,0,0,0,0,0,0,0,0],"sum_hessian":[1.45366E5,9.0891E4,5.4475E4,4.408E4,4.6811E4,3.5792E4,1.8683E4,2.7336E4,1.6744E4,1.4873E4,3.1938E4,2.2477E4,1.3315E4,1.3137E4,5.546E3],"tree_param":{"num_deleted":"0","num_feature":"10","num_nodes":"15","size_leaf_vector":"1"}},{"base_weights":[1.4501989E4,1.3192263E4,1.7040303E4,1.1900934E4,1.4456744E4,1.6317305E4,1.957115E4,1.0541093E2,1.2536839E2,1.2596342E2,1.4940317E2,1.5368544E2,1.7230576E2,1.7141965E2,2.0252722E2],"categories":[],"categories_nodes":[],"categories_segments":[],"categories_sizes":[],"default_left":[1,0,0,0,0,0,0,0,0,0,0,0,0,0,0],"id":79,"left_children":[1,3,5,7,9,11,13,-1,-1,-1,-1,-1,-1,-1,-1],"loss_changes":[4.830475E11,1.5640979E11,9.020899E10,4.089866E10,4.3395318E10,3.3083621E10,1.784519E10,0E0,0E0,0E0,0E0,0E0,0E0,0E0,0E0],"parents":[2147483647,0,0,1,1,2,2,3,3,4,4,5,5,6,6],"right_children":[2,4,6,8,10,12,14,-1,-1,-1,-1,-1,-1,-1,-1],"split_conditions":[3.3207E4,2.9623E4,4.1459E4,2.491E4,7E0,3.5707E4,1.72E2,1.0541093E2,1.2536839E2,1.2596342E2,1.4940317E2,1.5368544E2,1.7230576E2,1.7141965E2,2.0252722E2],"split_indices":[8,7,8,8,0,9,5,0,0,0,0,0,0,0,0],"split_type":[0,0,0,0,0,0,0,0,0,0,0,0,0,0,0],"sum_hessian":[1.45366E5,9.5893E4,4.9473E4,4.7448E4,4.8445E4,3.8486E4,1.0987E4,1.5124E4,3.2324E4,1E4,3.8445E4,1.8885E4,1.9601E4,2.413E3,8.574E3],"tree_param":{"num_deleted":"0","num_feature":"10","num_nodes":"15","size_leaf_vector":"1"}},{"base_weights":[1.4356978E4,1.3201329E4,1.718369E4,1.1598007E4,1.4207031E4,1.6569016E4,2.0029352E4,1.0244186E2,1.2257952E2,1.2467562E2,1.4704294E2,1.6236359E2,1.9797845E2,2.0545345E2,1.6565523E2],"categories":[],"categories_nodes":[],"categories_segments":[],"categories_sizes":[],"default_left":[1,0,0,0,0,1,0,0,0,0,0,0,0,0,0],"id":80,"left_children":[1,3,5,7,9,11,13,-1,-1,-1,-1,-1,-1,-1,-1],"loss_changes":[4.7464002E11,1.6622236E11,7.34496E10,3.5416703E10,5.466122E10,3.694343E10,1.3043237E10,0E0,0E0,0E0,0E0,0E0,0E0,0E0,0E0],"parents":[2147483647,0,0,1,1,2,2,3,3,4,4,5,5,6,6],"right_children":[2,4,6,8,10,12,14,-1,-1,-1,-1,-1,-1,-1,-1],"split_conditions":[3.4485E4,2.8976E4,4.3836E4,2.4805E4,7E0,4.3901E4,2.34E2,1.0244186E2,1.2257952E2,1.2467562E2,1.4704294E2,1.6236359E2,1.9797845E2,2.0545345E2,1.6565523E2],"split_indices":[7,8,7,9,0,9,5,0,0,0,0,0,0,0,0],"split_type":[0,0,0,0,0,0,0,0,0,0,0,0,0,0,0],"sum_hessian":[1.45366E5,1.03186E5,4.218E4,3.978E4,6.3406E4,3.4693E4,7.487E3,1.3042E4,2.6738E4,1.4102E4,4.9304E4,3.1458E4,3.235E3,6.512E3,9.75E2],"tree_param":{"num_deleted":"0","num_feature":"10","num_nodes":"15","size_leaf_vector":"1"}},{"base_weights":[1.4213417E4,1.292692E4,1.6706709E4,1.1324324E4,1.39069795E4,1.5917299E4,1.895751E4,9.9462E1,1.1860934E2,1.2181115E2,1.4494331E2,1.5267137E2,1.6990724E2,1.6021126E2,1.9566092E2],"categories":[],"categories_nodes":[],"categories_segments":[],"categories_sizes":[],"default_left":[1,0,1,0,0,1,0,0,0,0,0,0,0,0,0],"id":81,"left_children":[1,3,5,7,9,11,13,-1,-1,-1,-1,-1,-1,-1,-1],"loss_changes":[4.6606477E11,1.5045702E11,8.760223E10,2.679636E10,6.013898E10,2.530843E10,2.2634562E10,0E0,0E0,0E0,0E0,0E0,0E0,0E0,0E0],"parents":[2147483647,0,0,1,1,2,2,3,3,4,4,5,5,6,6],"right_children":[2,4,6,8,10,12,14,-1,-1,-1,-1,-1,-1,-1,-1],"split_conditions":[3.3207E4,2.9131E4,3.9928E4,2.3909E4,7E0,3.6673E4,1.5E2,9.9462E1,1.1860934E2,1.2181115E2,